{"layers":[{"activation":{"function":"TanH"},"layer_type":"Convolutional","conv_params":{"kernel":3,"padding_type":"Valid","padding":0,"stride":1,"data":[[[0.0,0.0,0.0,0.0,0.0,0.0,0.0,0.0,0.0,0.0,0.0,0.0,0.0,0.0,0.0,0.0,0.0,0.0,0.0,0.0,0.0,0.0,0.0,0.0,0.0,0.0,0.0,0.0],[0.0,0.0,0.0,0.0,0.0,0.0,0.0,0.0,0.0,0.0,0.0,0.0,0.0,0.0,0.0,0.0,0.0,0.0,0.0,0.0,0.0,0.0,0.0,0.0,0.0,0.0,0.0,0.0],[0.0,0.0,0.0,0.0,0.0,0.0,0.0,0.0,0.0,0.0,0.0,0.0,0.0,0.0,0.0,0.0,0.0,0.0,0.0,0.0,0.0,0.0,0.0,0.0,0.0,0.0,0.0,0.0],[0.0,0.0,0.0,0.0,0.0,0.0,0.0,0.0,0.0,0.0,0.0,0.0,0.1450980392156863,0.24705882352941178,0.3686274509803922,0.26666666666666666,0.1411764705882353,0.0,0.0,0.0,0.0,0.0,0.0,0.0,0.0,0.0,0.0,0.0],[0.0,0.0,0.0,0.0,0.0,0.0,0.0,0.0,0.0,0.0,0.054901960784313725,0.5137254901960784,0.9450980392156862,0.996078431372549,0.996078431372549,0.996078431372549,0.9215686274509803,0.3803921568627451,0.054901960784313725,0.0,0.0,0.0,0.0,0.0,0.0,0.0,0.0,0.0],[0.0,0.0,0.0,0.0,0.0,0.0,0.0,0.0,0.0,0.2196078431372549,0.803921568627451,0.996078431372549,0.996078431372549,0.6980392156862745,0.7529411764705882,0.996078431372549,0.996078431372549,0.996078431372549,0.788235294117647,0.07450980392156863,0.0,0.0,0.0,0.0,0.0,0.0,0.0,0.0],[0.0,0.0,0.0,0.0,0.0,0.0,0.0,0.0,0.0,0.9764705882352941,0.996078431372549,0.7058823529411765,0.03137254901960784,0.00392156862745098,0.00784313725490196,0.01568627450980392,0.20392156862745098,0.9254901960784314,0.996078431372549,0.20784313725490197,0.0,0.0,0.0,0.0,0.0,0.0,0.0,0.0],[0.0,0.0,0.0,0.0,0.0,0.0,0.0,0.0,0.0,0.9450980392156862,0.9882352941176471,0.2549019607843137,0.0,0.0,0.0,0.0,0.0,0.3607843137254902,0.996078431372549,0.5254901960784314,0.0,0.0,0.0,0.0,0.0,0.0,0.0,0.0],[0.0,0.0,0.0,0.0,0.0,0.0,0.0,0.0,0.0,0.25882352941176473,0.4549019607843137,0.0,0.0,0.0,0.0,0.0,0.0,0.5725490196078431,0.996078431372549,0.3137254901960784,0.0,0.0,0.0,0.0,0.0,0.0,0.0,0.0],[0.0,0.0,0.0,0.0,0.0,0.0,0.0,0.0,0.0,0.0,0.0,0.0,0.0,0.0,0.0,0.0,0.054901960784313725,0.9882352941176471,0.996078431372549,0.20784313725490197,0.0,0.0,0.0,0.0,0.0,0.0,0.0,0.0],[0.0,0.0,0.0,0.0,0.0,0.0,0.0,0.0,0.0,0.0,0.0,0.0,0.0,0.0,0.0,0.01568627450980392,0.5568627450980392,0.996078431372549,0.8901960784313725,0.11372549019607843,0.0,0.0,0.0,0.0,0.0,0.0,0.0,0.0],[0.0,0.0,0.0,0.0,0.0,0.0,0.0,0.0,0.0,0.0,0.0,0.0,0.0,0.0,0.0,0.19215686274509805,0.996078431372549,0.996078431372549,0.18823529411764706,0.0,0.0,0.0,0.0,0.0,0.0,0.0,0.0,0.0],[0.0,0.0,0.0,0.0,0.0,0.0,0.0,0.0,0.0,0.0,0.0,0.0,0.0,0.0,0.0,0.6196078431372549,0.9882352941176471,0.4392156862745098,0.00392156862745098,0.0,0.0,0.0,0.0,0.0,0.0,0.0,0.0,0.0],[0.0,0.0,0.0,0.0,0.0,0.0,0.0,0.0,0.0,0.0,0.0,0.0,0.0,0.0,0.28627450980392155,0.9882352941176471,0.9215686274509803,0.0,0.0,0.0,0.0,0.0,0.0,0.0,0.0,0.0,0.0,0.0],[0.0,0.0,0.0,0.0,0.0,0.0,0.0,0.0,0.0,0.0,0.0,0.0,0.0,0.1411764705882353,0.788235294117647,0.996078431372549,0.30980392156862746,0.0,0.0,0.0,0.0,0.0,0.0,0.0,0.0,0.0,0.0,0.0],[0.0,0.0,0.0,0.0,0.0,0.0,0.0,0.0,0.0,0.0,0.0,0.0,0.4666666666666667,0.9568627450980393,0.9450980392156862,0.4,0.01568627450980392,0.0,0.0,0.0,0.0,0.0,0.0,0.0,0.0,0.0,0.0,0.0],[0.0,0.0,0.0,0.0,0.0,0.0,0.0,0.0,0.0,0.0,0.0196078431372549,0.44313725490196076,0.9921568627450981,0.9529411764705882,0.2549019607843137,0.0,0.0,0.0,0.0,0.0,0.0,0.0,0.0,0.0,0.0,0.0,0.0,0.0],[0.0,0.0,0.0,0.0,0.0,0.0,0.0,0.0,0.0,0.06666666666666667,0.7647058823529411,0.996078431372549,0.8313725490196079,0.24705882352941178,0.0,0.0,0.0,0.0,0.0,0.0,0.0,0.0,0.0,0.0,0.0,0.0,0.0,0.0],[0.0,0.0,0.0,0.0,0.0,0.0,0.0,0.0196078431372549,0.2901960784313726,0.9215686274509803,0.984313725490196,0.7176470588235294,0.19607843137254902,0.0,0.0,0.0,0.0,0.0,0.027450980392156862,0.15294117647058825,0.2980392156862745,0.15294117647058825,0.15294117647058825,0.2549019607843137,0.5294117647058824,0.5294117647058824,0.0,0.0],[0.0,0.0,0.0,0.0,0.0,0.0,0.10588235294117647,0.6078431372549019,0.996078431372549,0.996078431372549,0.47843137254901963,0.0196078431372549,0.09803921568627451,0.2549019607843137,0.4,0.47058823529411764,0.7764705882352941,0.7764705882352941,0.8117647058823529,0.996078431372549,0.996078431372549,0.996078431372549,0.9921568627450981,0.9803921568627451,0.6431372549019608,0.4588235294117647,0.0,0.0],[0.0,0.0,0.0,0.0,0.0,0.0,0.7215686274509804,0.996078431372549,0.996078431372549,0.996078431372549,0.996078431372549,0.996078431372549,0.996078431372549,0.996078431372549,0.996078431372549,0.996078431372549,0.996078431372549,0.8156862745098039,0.6666666666666666,0.3568627450980392,0.6039215686274509,0.39215686274509803,0.21568627450980393,0.0,0.0,0.0,0.0,0.0],[0.0,0.0,0.0,0.0,0.0,0.0,0.7254901960784313,0.9803921568627451,0.996078431372549,0.9686274509803922,0.9294117647058824,0.9019607843137255,0.8666666666666667,0.5490196078431373,0.49019607843137253,0.49019607843137253,0.1803921568627451,0.03529411764705882,0.0,0.0,0.0,0.0,0.0,0.0,0.0,0.0,0.0,0.0],[0.0,0.0,0.0,0.0,0.0,0.0,0.0,0.21176470588235294,0.24313725490196078,0.18823529411764706,0.11764705882352941,0.07058823529411765,0.0,0.0,0.0,0.0,0.0,0.0,0.0,0.0,0.0,0.0,0.0,0.0,0.0,0.0,0.0,0.0],[0.0,0.0,0.0,0.0,0.0,0.0,0.0,0.0,0.0,0.0,0.0,0.0,0.0,0.0,0.0,0.0,0.0,0.0,0.0,0.0,0.0,0.0,0.0,0.0,0.0,0.0,0.0,0.0],[0.0,0.0,0.0,0.0,0.0,0.0,0.0,0.0,0.0,0.0,0.0,0.0,0.0,0.0,0.0,0.0,0.0,0.0,0.0,0.0,0.0,0.0,0.0,0.0,0.0,0.0,0.0,0.0],[0.0,0.0,0.0,0.0,0.0,0.0,0.0,0.0,0.0,0.0,0.0,0.0,0.0,0.0,0.0,0.0,0.0,0.0,0.0,0.0,0.0,0.0,0.0,0.0,0.0,0.0,0.0,0.0],[0.0,0.0,0.0,0.0,0.0,0.0,0.0,0.0,0.0,0.0,0.0,0.0,0.0,0.0,0.0,0.0,0.0,0.0,0.0,0.0,0.0,0.0,0.0,0.0,0.0,0.0,0.0,0.0],[0.0,0.0,0.0,0.0,0.0,0.0,0.0,0.0,0.0,0.0,0.0,0.0,0.0,0.0,0.0,0.0,0.0,0.0,0.0,0.0,0.0,0.0,0.0,0.0,0.0,0.0,0.0,0.0]]],"weights":[[[0.791269210382825,0.8212245998062934,1.1802656430968779],[-0.6646050741591908,-0.5467115767660503,-0.4236968928315639],[-2.362949763612451,-1.3731250147207459,-1.3949670064552653]]],"bias":-0.016040255487888382,"outputs":[[[-0.14335745699564797,-0.14335745699564797,-0.14335745699564797,-0.14335745699564797,-0.14335745699564797,-0.14335745699564797,-0.14335745699564797,-0.14335745699564797,-0.14335745699564797,-0.14335745699564797,-0.14335745699564797,-0.14335745699564797,-0.14335745699564797,-0.14335745699564797,-0.14335745699564797,-0.14335745699564797,-0.14335745699564797,-0.14335745699564797,-0.14335745699564797,-0.14335745699564797,-0.14335745699564797,-0.14335745699564797,-0.14335745699564797,-0.14335745699564797,-0.14335745699564797,-0.14335745699564797],[-0.14335745699564797,-0.14335745699564797,-0.14335745699564797,-0.14335745699564797,-0.14335745699564797,-0.14335745699564797,-0.14335745699564797,-0.14335745699564797,-0.14335745699564797,-0.14335745699564797,-0.333496072621075,-0.5968397448510618,-0.8718313489154822,-0.9226089541898363,-0.9183643818417032,-0.7479610099640884,-0.4445905985233797,-0.14335745699564797,-0.14335745699564797,-0.14335745699564797,-0.14335745699564797,-0.14335745699564797,-0.14335745699564797,-0.14335745699564797,-0.14335745699564797,-0.14335745699564797],[-0.14335745699564797,-0.14335745699564797,-0.14335745699564797,-0.14335745699564797,-0.14335745699564797,-0.14335745699564797,-0.14335745699564797,-0.14335745699564797,-0.21741137097512098,-0.7335459927314542,-0.9822942050591226,-0.99957554293019,-0.9999679900453408,-0.9999790278384579,-0.9999727013090125,-0.999775801838765,-0.9951959487363862,-0.8070701625666544,-0.2674169251300851,-0.14335745699564797,-0.14335745699564797,-0.14335745699564797,-0.14335745699564797,-0.14335745699564797,-0.14335745699564797,-0.14335745699564797],[-0.14335745699564797,-0.14335745699564797,-0.14335745699564797,-0.14335745699564797,-0.14335745699564797,-0.14335745699564797,-0.14335745699564797,-0.42246957013196984,-0.9202245816278384,-0.9977894592813481,-0.9999544497873225,-0.9999778134397588,-0.9999543503677935,-0.9999141603731655,-0.9999724610750318,-0.9999925876739729,-0.9999774310525444,-0.9992830359309015,-0.9729936081458542,-0.3098786096396713,-0.14335745699564797,-0.14335745699564797,-0.14335745699564797,-0.14335745699564797,-0.14335745699564797,-0.14335745699564797],[-0.14335745699564797,-0.14335745699564797,-0.14335745699564797,-0.14335745699564797,-0.14335745699564797,-0.14335745699564797,-0.14335745699564797,-0.9215358859158618,-0.9971073115532135,-0.9999335158995529,-0.9978811775825703,-0.7611005903652284,0.8174461837701248,0.8625228364903658,0.6430273354657009,-0.8815889801681883,-0.9988216036336452,-0.999854972873701,-0.9973032275538521,-0.5947010087008259,-0.14335745699564797,-0.14335745699564797,-0.14335745699564797,-0.14335745699564797,-0.14335745699564797,-0.14335745699564797],[-0.14335745699564797,-0.14335745699564797,-0.14335745699564797,-0.14335745699564797,-0.14335745699564797,-0.14335745699564797,-0.14335745699564797,-0.9238834657762892,-0.9899098059708418,-0.9984050934178528,-0.8502145351269451,0.832800876989341,0.9692781256992962,0.9752793703388947,0.9818819183609631,0.925177585338134,-0.5019289974827171,-0.9929206528160573,-0.9973388549491726,-0.8986459338051173,-0.14335745699564797,-0.14335745699564797,-0.14335745699564797,-0.14335745699564797,-0.14335745699564797,-0.14335745699564797],[-0.14335745699564797,-0.14335745699564797,-0.14335745699564797,-0.14335745699564797,-0.14335745699564797,-0.14335745699564797,-0.14335745699564797,0.24557397192210317,-0.08544291088943781,-0.22554186403712134,-0.5441979839159043,0.2674842330672382,-0.10667867221069963,-0.11573388449788766,0.1153813583769874,0.17746477252321471,-0.6841454795796885,-0.986914604396228,-0.9941896531876206,-0.7895719161933793,-0.14335745699564797,-0.14335745699564797,-0.14335745699564797,-0.14335745699564797,-0.14335745699564797,-0.14335745699564797],[-0.14335745699564797,-0.14335745699564797,-0.14335745699564797,-0.14335745699564797,-0.14335745699564797,-0.14335745699564797,-0.14335745699564797,0.6983819333503529,0.8993060490357645,0.860701834689749,0.49565768234516594,0.05680244567903444,-0.14335745699564797,-0.14335745699564797,-0.21741137097512098,-0.8881586394142887,-0.9792242816364416,-0.9980547247177822,-0.9835776029011375,-0.4043471638000549,-0.14335745699564797,-0.14335745699564797,-0.14335745699564797,-0.14335745699564797,-0.14335745699564797,-0.14335745699564797],[-0.14335745699564797,-0.14335745699564797,-0.14335745699564797,-0.14335745699564797,-0.14335745699564797,-0.14335745699564797,-0.14335745699564797,0.16033560961278145,0.5416529896488256,0.40875173723759783,0.21149936883536932,-0.14335745699564797,-0.14335745699564797,-0.1647189500896228,-0.7468737599927328,-0.9707567937739111,-0.9978471216837328,-0.9982617036922369,-0.9723673425583829,-0.294371500815119,-0.14335745699564797,-0.14335745699564797,-0.14335745699564797,-0.14335745699564797,-0.14335745699564797,-0.14335745699564797],[-0.14335745699564797,-0.14335745699564797,-0.14335745699564797,-0.14335745699564797,-0.14335745699564797,-0.14335745699564797,-0.14335745699564797,-0.14335745699564797,-0.14335745699564797,-0.14335745699564797,-0.14335745699564797,-0.14335745699564797,-0.14335745699564797,-0.3961032219678259,-0.9623084461970143,-0.9936690343506318,-0.9976962351478808,-0.9707917489837687,-0.2772089076301194,-0.055692723521469374,-0.14335745699564797,-0.14335745699564797,-0.14335745699564797,-0.14335745699564797,-0.14335745699564797,-0.14335745699564797],[-0.14335745699564797,-0.14335745699564797,-0.14335745699564797,-0.14335745699564797,-0.14335745699564797,-0.14335745699564797,-0.14335745699564797,-0.14335745699564797,-0.14335745699564797,-0.14335745699564797,-0.14335745699564797,-0.14335745699564797,-0.14335745699564797,-0.7899063559424603,-0.9770147228716587,-0.9952556146714931,-0.9680426570002436,-0.2897297473509248,0.47593536647072593,-0.05452462730330284,-0.14335745699564797,-0.14335745699564797,-0.14335745699564797,-0.14335745699564797,-0.14335745699564797,-0.14335745699564797],[-0.14335745699564797,-0.14335745699564797,-0.14335745699564797,-0.14335745699564797,-0.14335745699564797,-0.14335745699564797,-0.14335745699564797,-0.14335745699564797,-0.14335745699564797,-0.14335745699564797,-0.14335745699564797,-0.14335745699564797,-0.49577694502461045,-0.9603278107039359,-0.9937446652988001,-0.9915542377560846,-0.8833466316794458,0.4645998978950696,0.0016357741719944547,-0.14335745699564797,-0.14335745699564797,-0.14335745699564797,-0.14335745699564797,-0.14335745699564797,-0.14335745699564797,-0.14335745699564797],[-0.14335745699564797,-0.14335745699564797,-0.14335745699564797,-0.14335745699564797,-0.14335745699564797,-0.14335745699564797,-0.14335745699564797,-0.14335745699564797,-0.14335745699564797,-0.14335745699564797,-0.14335745699564797,-0.3286252492148883,-0.9151793993475702,-0.992483984739088,-0.9969752219825053,-0.9784801447037296,-0.3292104448786107,0.2027352139146742,-0.14032411724174448,-0.14335745699564797,-0.14335745699564797,-0.14335745699564797,-0.14335745699564797,-0.14335745699564797,-0.14335745699564797,-0.14335745699564797],[-0.14335745699564797,-0.14335745699564797,-0.14335745699564797,-0.14335745699564797,-0.14335745699564797,-0.14335745699564797,-0.14335745699564797,-0.14335745699564797,-0.14335745699564797,-0.14335745699564797,-0.6614176797142736,-0.9747392953758585,-0.9992591738876405,-0.9990010951217241,-0.9652186271085581,-0.38247757239437286,0.32789956544694565,-0.14335745699564797,-0.14335745699564797,-0.14335745699564797,-0.14335745699564797,-0.14335745699564797,-0.14335745699564797,-0.14335745699564797,-0.14335745699564797,-0.14335745699564797],[-0.14335745699564797,-0.14335745699564797,-0.14335745699564797,-0.14335745699564797,-0.14335745699564797,-0.14335745699564797,-0.14335745699564797,-0.14335745699564797,-0.1700360830829876,-0.6580866400224006,-0.9830152556441891,-0.9996827154014919,-0.9996566340792999,-0.9720171259144604,0.2062212719783549,0.5530437890238261,0.0895526329078161,-0.14335745699564797,-0.14335745699564797,-0.14335745699564797,-0.14335745699564797,-0.14335745699564797,-0.14335745699564797,-0.14335745699564797,-0.14335745699564797,-0.14335745699564797],[-0.14335745699564797,-0.14335745699564797,-0.14335745699564797,-0.14335745699564797,-0.14335745699564797,-0.14335745699564797,-0.14335745699564797,-0.23298987442921804,-0.8645010857834785,-0.9944150729638931,-0.9997979936284045,-0.99879295080461,-0.8977954187548934,0.46695209283061906,0.6527586423809175,0.18224467172526151,-0.1312084987958271,-0.14335745699564797,-0.14335745699564797,-0.14335745699564797,-0.14335745699564797,-0.14335745699564797,-0.14335745699564797,-0.14335745699564797,-0.14335745699564797,-0.14335745699564797],[-0.14335745699564797,-0.14335745699564797,-0.14335745699564797,-0.14335745699564797,-0.14335745699564797,-0.1700360830829876,-0.5198144222104629,-0.9564784957152637,-0.9990081717460012,-0.9999120607621712,-0.9984389129539196,-0.7760084693527144,0.5185075152159059,0.5740845478209253,0.05680244567903444,-0.14335745699564797,-0.18064041283602592,-0.3759983606442993,-0.683137008472485,-0.8104453284572429,-0.8543228407645449,-0.7899576677972244,-0.9207986317514586,-0.9763166503544918,-0.9717194910534842,-0.8843313903998801],[-0.14335745699564797,-0.14335745699564797,-0.14335745699564797,-0.14335745699564797,-0.28402298801336817,-0.8163993643947238,-0.9918884342884672,-0.999869618562357,-0.9998293406195741,-0.9922390992854282,-0.15846221167087798,0.46069389369764624,-0.5039894144545735,-0.942204171299351,-0.9929028191175913,-0.9977998164011289,-0.99954056344273,-0.9997822915179269,-0.9999173591823014,-0.9999717508902263,-0.9999724021281006,-0.9999679313848735,-0.9999386387723024,-0.9998226898099943,-0.9943606050554522,-0.9185732325910838],[-0.14335745699564797,-0.14335745699564797,-0.14335745699564797,-0.14335745699564797,-0.832298448199162,-0.9928572280660114,-0.9999209511443584,-0.9999479387622731,-0.999758230278071,-0.9989990023847348,-0.9993627575459113,-0.999835044265035,-0.9999647623705572,-0.9999831134143377,-0.9999900370013435,-0.9999892517080806,-0.9999815496190672,-0.999820705907326,-0.9993983976096825,-0.9979527131057438,-0.9981472802314595,-0.9847686920656699,-0.8216994189653157,-0.07643176628602509,0.03191186028538428,-0.03090160421886933],[-0.14335745699564797,-0.14335745699564797,-0.14335745699564797,-0.14335745699564797,-0.8705969918909279,-0.987033615966489,-0.9996131237319004,-0.9996514392765778,-0.9997887278256468,-0.9999582992679578,-0.9999850723295143,-0.9999637036606381,-0.9997503914505744,-0.9974731656384576,-0.9771779342033629,-0.8395495332836278,0.2024878678139863,0.825970367383909,0.9219459441627696,0.9568730041870154,0.9586408121425907,0.9775646382971689,0.9681964209017683,0.9355501162557766,0.6295727947294382,0.2144545737825688],[-0.14335745699564797,-0.14335745699564797,-0.14335745699564797,-0.14335745699564797,0.38245822644907124,0.47952038675798947,0.3417762928701382,-0.06012972110040197,0.060555394340984024,0.383465820146293,0.6583411695316519,0.8241004063131736,0.9150587892384848,0.9468729821859587,0.9618730301103612,0.9631152388084501,0.9612624181663246,0.8949921094604945,0.8830858626694194,0.7997187109866761,0.7211266565617317,0.32980574545655383,0.025901635220071162,-0.14335745699564797,-0.14335745699564797,-0.14335745699564797],[-0.14335745699564797,-0.14335745699564797,-0.14335745699564797,-0.14335745699564797,0.6129343197615856,0.9091206930532479,0.9754816905075367,0.977664570407606,0.9768706787176334,0.9772517381914728,0.9775651507376415,0.9547486049666553,0.9171920688068358,0.8543170003254864,0.6958003782602257,0.4075839061421294,0.027069275601728057,-0.11596711607769564,-0.14335745699564797,-0.14335745699564797,-0.14335745699564797,-0.14335745699564797,-0.14335745699564797,-0.14335745699564797,-0.14335745699564797,-0.14335745699564797],[-0.14335745699564797,-0.14335745699564797,-0.14335745699564797,-0.14335745699564797,-0.14335745699564797,0.10568357750333379,0.3071133794998003,0.41810682846318603,0.32884002014101454,0.18241413328480507,0.006574897633851941,-0.08839925587855353,-0.14335745699564797,-0.14335745699564797,-0.14335745699564797,-0.14335745699564797,-0.14335745699564797,-0.14335745699564797,-0.14335745699564797,-0.14335745699564797,-0.14335745699564797,-0.14335745699564797,-0.14335745699564797,-0.14335745699564797,-0.14335745699564797,-0.14335745699564797],[-0.14335745699564797,-0.14335745699564797,-0.14335745699564797,-0.14335745699564797,-0.14335745699564797,-0.14335745699564797,-0.14335745699564797,-0.14335745699564797,-0.14335745699564797,-0.14335745699564797,-0.14335745699564797,-0.14335745699564797,-0.14335745699564797,-0.14335745699564797,-0.14335745699564797,-0.14335745699564797,-0.14335745699564797,-0.14335745699564797,-0.14335745699564797,-0.14335745699564797,-0.14335745699564797,-0.14335745699564797,-0.14335745699564797,-0.14335745699564797,-0.14335745699564797,-0.14335745699564797],[-0.14335745699564797,-0.14335745699564797,-0.14335745699564797,-0.14335745699564797,-0.14335745699564797,-0.14335745699564797,-0.14335745699564797,-0.14335745699564797,-0.14335745699564797,-0.14335745699564797,-0.14335745699564797,-0.14335745699564797,-0.14335745699564797,-0.14335745699564797,-0.14335745699564797,-0.14335745699564797,-0.14335745699564797,-0.14335745699564797,-0.14335745699564797,-0.14335745699564797,-0.14335745699564797,-0.14335745699564797,-0.14335745699564797,-0.14335745699564797,-0.14335745699564797,-0.14335745699564797],[-0.14335745699564797,-0.14335745699564797,-0.14335745699564797,-0.14335745699564797,-0.14335745699564797,-0.14335745699564797,-0.14335745699564797,-0.14335745699564797,-0.14335745699564797,-0.14335745699564797,-0.14335745699564797,-0.14335745699564797,-0.14335745699564797,-0.14335745699564797,-0.14335745699564797,-0.14335745699564797,-0.14335745699564797,-0.14335745699564797,-0.14335745699564797,-0.14335745699564797,-0.14335745699564797,-0.14335745699564797,-0.14335745699564797,-0.14335745699564797,-0.14335745699564797,-0.14335745699564797]]],"inputs":[[[0.0,0.0,0.0,0.0,0.0,0.0,0.0,0.0,0.0,0.0,0.0,0.0,0.0,0.0,0.0,0.0,0.0,0.0,0.0,0.0,0.0,0.0,0.0,0.0,0.0,0.0,0.0,0.0],[0.0,0.0,0.0,0.0,0.0,0.0,0.0,0.0,0.0,0.0,0.0,0.0,0.0,0.0,0.0,0.0,0.0,0.0,0.0,0.0,0.0,0.0,0.0,0.0,0.0,0.0,0.0,0.0],[0.0,0.0,0.0,0.0,0.0,0.0,0.0,0.0,0.0,0.0,0.0,0.0,0.0,0.0,0.0,0.0,0.0,0.0,0.0,0.0,0.0,0.0,0.0,0.0,0.0,0.0,0.0,0.0],[0.0,0.0,0.0,0.0,0.0,0.0,0.0,0.0,0.0,0.0,0.0,0.0,0.1450980392156863,0.24705882352941178,0.3686274509803922,0.26666666666666666,0.1411764705882353,0.0,0.0,0.0,0.0,0.0,0.0,0.0,0.0,0.0,0.0,0.0],[0.0,0.0,0.0,0.0,0.0,0.0,0.0,0.0,0.0,0.0,0.054901960784313725,0.5137254901960784,0.9450980392156862,0.996078431372549,0.996078431372549,0.996078431372549,0.9215686274509803,0.3803921568627451,0.054901960784313725,0.0,0.0,0.0,0.0,0.0,0.0,0.0,0.0,0.0],[0.0,0.0,0.0,0.0,0.0,0.0,0.0,0.0,0.0,0.2196078431372549,0.803921568627451,0.996078431372549,0.996078431372549,0.6980392156862745,0.7529411764705882,0.996078431372549,0.996078431372549,0.996078431372549,0.788235294117647,0.07450980392156863,0.0,0.0,0.0,0.0,0.0,0.0,0.0,0.0],[0.0,0.0,0.0,0.0,0.0,0.0,0.0,0.0,0.0,0.9764705882352941,0.996078431372549,0.7058823529411765,0.03137254901960784,0.00392156862745098,0.00784313725490196,0.01568627450980392,0.20392156862745098,0.9254901960784314,0.996078431372549,0.20784313725490197,0.0,0.0,0.0,0.0,0.0,0.0,0.0,0.0],[0.0,0.0,0.0,0.0,0.0,0.0,0.0,0.0,0.0,0.9450980392156862,0.9882352941176471,0.2549019607843137,0.0,0.0,0.0,0.0,0.0,0.3607843137254902,0.996078431372549,0.5254901960784314,0.0,0.0,0.0,0.0,0.0,0.0,0.0,0.0],[0.0,0.0,0.0,0.0,0.0,0.0,0.0,0.0,0.0,0.25882352941176473,0.4549019607843137,0.0,0.0,0.0,0.0,0.0,0.0,0.5725490196078431,0.996078431372549,0.3137254901960784,0.0,0.0,0.0,0.0,0.0,0.0,0.0,0.0],[0.0,0.0,0.0,0.0,0.0,0.0,0.0,0.0,0.0,0.0,0.0,0.0,0.0,0.0,0.0,0.0,0.054901960784313725,0.9882352941176471,0.996078431372549,0.20784313725490197,0.0,0.0,0.0,0.0,0.0,0.0,0.0,0.0],[0.0,0.0,0.0,0.0,0.0,0.0,0.0,0.0,0.0,0.0,0.0,0.0,0.0,0.0,0.0,0.01568627450980392,0.5568627450980392,0.996078431372549,0.8901960784313725,0.11372549019607843,0.0,0.0,0.0,0.0,0.0,0.0,0.0,0.0],[0.0,0.0,0.0,0.0,0.0,0.0,0.0,0.0,0.0,0.0,0.0,0.0,0.0,0.0,0.0,0.19215686274509805,0.996078431372549,0.996078431372549,0.18823529411764706,0.0,0.0,0.0,0.0,0.0,0.0,0.0,0.0,0.0],[0.0,0.0,0.0,0.0,0.0,0.0,0.0,0.0,0.0,0.0,0.0,0.0,0.0,0.0,0.0,0.6196078431372549,0.9882352941176471,0.4392156862745098,0.00392156862745098,0.0,0.0,0.0,0.0,0.0,0.0,0.0,0.0,0.0],[0.0,0.0,0.0,0.0,0.0,0.0,0.0,0.0,0.0,0.0,0.0,0.0,0.0,0.0,0.28627450980392155,0.9882352941176471,0.9215686274509803,0.0,0.0,0.0,0.0,0.0,0.0,0.0,0.0,0.0,0.0,0.0],[0.0,0.0,0.0,0.0,0.0,0.0,0.0,0.0,0.0,0.0,0.0,0.0,0.0,0.1411764705882353,0.788235294117647,0.996078431372549,0.30980392156862746,0.0,0.0,0.0,0.0,0.0,0.0,0.0,0.0,0.0,0.0,0.0],[0.0,0.0,0.0,0.0,0.0,0.0,0.0,0.0,0.0,0.0,0.0,0.0,0.4666666666666667,0.9568627450980393,0.9450980392156862,0.4,0.01568627450980392,0.0,0.0,0.0,0.0,0.0,0.0,0.0,0.0,0.0,0.0,0.0],[0.0,0.0,0.0,0.0,0.0,0.0,0.0,0.0,0.0,0.0,0.0196078431372549,0.44313725490196076,0.9921568627450981,0.9529411764705882,0.2549019607843137,0.0,0.0,0.0,0.0,0.0,0.0,0.0,0.0,0.0,0.0,0.0,0.0,0.0],[0.0,0.0,0.0,0.0,0.0,0.0,0.0,0.0,0.0,0.06666666666666667,0.7647058823529411,0.996078431372549,0.8313725490196079,0.24705882352941178,0.0,0.0,0.0,0.0,0.0,0.0,0.0,0.0,0.0,0.0,0.0,0.0,0.0,0.0],[0.0,0.0,0.0,0.0,0.0,0.0,0.0,0.0196078431372549,0.2901960784313726,0.9215686274509803,0.984313725490196,0.7176470588235294,0.19607843137254902,0.0,0.0,0.0,0.0,0.0,0.027450980392156862,0.15294117647058825,0.2980392156862745,0.15294117647058825,0.15294117647058825,0.2549019607843137,0.5294117647058824,0.5294117647058824,0.0,0.0],[0.0,0.0,0.0,0.0,0.0,0.0,0.10588235294117647,0.6078431372549019,0.996078431372549,0.996078431372549,0.47843137254901963,0.0196078431372549,0.09803921568627451,0.2549019607843137,0.4,0.47058823529411764,0.7764705882352941,0.7764705882352941,0.8117647058823529,0.996078431372549,0.996078431372549,0.996078431372549,0.9921568627450981,0.9803921568627451,0.6431372549019608,0.4588235294117647,0.0,0.0],[0.0,0.0,0.0,0.0,0.0,0.0,0.7215686274509804,0.996078431372549,0.996078431372549,0.996078431372549,0.996078431372549,0.996078431372549,0.996078431372549,0.996078431372549,0.996078431372549,0.996078431372549,0.996078431372549,0.8156862745098039,0.6666666666666666,0.3568627450980392,0.6039215686274509,0.39215686274509803,0.21568627450980393,0.0,0.0,0.0,0.0,0.0],[0.0,0.0,0.0,0.0,0.0,0.0,0.7254901960784313,0.9803921568627451,0.996078431372549,0.9686274509803922,0.9294117647058824,0.9019607843137255,0.8666666666666667,0.5490196078431373,0.49019607843137253,0.49019607843137253,0.1803921568627451,0.03529411764705882,0.0,0.0,0.0,0.0,0.0,0.0,0.0,0.0,0.0,0.0],[0.0,0.0,0.0,0.0,0.0,0.0,0.0,0.21176470588235294,0.24313725490196078,0.18823529411764706,0.11764705882352941,0.07058823529411765,0.0,0.0,0.0,0.0,0.0,0.0,0.0,0.0,0.0,0.0,0.0,0.0,0.0,0.0,0.0,0.0],[0.0,0.0,0.0,0.0,0.0,0.0,0.0,0.0,0.0,0.0,0.0,0.0,0.0,0.0,0.0,0.0,0.0,0.0,0.0,0.0,0.0,0.0,0.0,0.0,0.0,0.0,0.0,0.0],[0.0,0.0,0.0,0.0,0.0,0.0,0.0,0.0,0.0,0.0,0.0,0.0,0.0,0.0,0.0,0.0,0.0,0.0,0.0,0.0,0.0,0.0,0.0,0.0,0.0,0.0,0.0,0.0],[0.0,0.0,0.0,0.0,0.0,0.0,0.0,0.0,0.0,0.0,0.0,0.0,0.0,0.0,0.0,0.0,0.0,0.0,0.0,0.0,0.0,0.0,0.0,0.0,0.0,0.0,0.0,0.0],[0.0,0.0,0.0,0.0,0.0,0.0,0.0,0.0,0.0,0.0,0.0,0.0,0.0,0.0,0.0,0.0,0.0,0.0,0.0,0.0,0.0,0.0,0.0,0.0,0.0,0.0,0.0,0.0],[0.0,0.0,0.0,0.0,0.0,0.0,0.0,0.0,0.0,0.0,0.0,0.0,0.0,0.0,0.0,0.0,0.0,0.0,0.0,0.0,0.0,0.0,0.0,0.0,0.0,0.0,0.0,0.0]]]},"dense_params":null},{"activation":{"function":"ReLU"},"layer_type":"Pooling","conv_params":{"kernel":2,"padding_type":"Valid","padding":0,"stride":2,"data":[[[-0.14335745699564797,-0.14335745699564797,-0.14335745699564797,-0.14335745699564797,-0.14335745699564797,-0.14335745699564797,-0.14335745699564797,-0.14335745699564797,-0.14335745699564797,-0.14335745699564797,-0.14335745699564797,-0.14335745699564797,-0.14335745699564797,-0.14335745699564797,-0.14335745699564797,-0.14335745699564797,-0.14335745699564797,-0.14335745699564797,-0.14335745699564797,-0.14335745699564797,-0.14335745699564797,-0.14335745699564797,-0.14335745699564797,-0.14335745699564797,-0.14335745699564797,-0.14335745699564797],[-0.14335745699564797,-0.14335745699564797,-0.14335745699564797,-0.14335745699564797,-0.14335745699564797,-0.14335745699564797,-0.14335745699564797,-0.14335745699564797,-0.14335745699564797,-0.14335745699564797,-0.333496072621075,-0.5968397448510618,-0.8718313489154822,-0.9226089541898363,-0.9183643818417032,-0.7479610099640884,-0.4445905985233797,-0.14335745699564797,-0.14335745699564797,-0.14335745699564797,-0.14335745699564797,-0.14335745699564797,-0.14335745699564797,-0.14335745699564797,-0.14335745699564797,-0.14335745699564797],[-0.14335745699564797,-0.14335745699564797,-0.14335745699564797,-0.14335745699564797,-0.14335745699564797,-0.14335745699564797,-0.14335745699564797,-0.14335745699564797,-0.21741137097512098,-0.7335459927314542,-0.9822942050591226,-0.99957554293019,-0.9999679900453408,-0.9999790278384579,-0.9999727013090125,-0.999775801838765,-0.9951959487363862,-0.8070701625666544,-0.2674169251300851,-0.14335745699564797,-0.14335745699564797,-0.14335745699564797,-0.14335745699564797,-0.14335745699564797,-0.14335745699564797,-0.14335745699564797],[-0.14335745699564797,-0.14335745699564797,-0.14335745699564797,-0.14335745699564797,-0.14335745699564797,-0.14335745699564797,-0.14335745699564797,-0.42246957013196984,-0.9202245816278384,-0.9977894592813481,-0.9999544497873225,-0.9999778134397588,-0.9999543503677935,-0.9999141603731655,-0.9999724610750318,-0.9999925876739729,-0.9999774310525444,-0.9992830359309015,-0.9729936081458542,-0.3098786096396713,-0.14335745699564797,-0.14335745699564797,-0.14335745699564797,-0.14335745699564797,-0.14335745699564797,-0.14335745699564797],[-0.14335745699564797,-0.14335745699564797,-0.14335745699564797,-0.14335745699564797,-0.14335745699564797,-0.14335745699564797,-0.14335745699564797,-0.9215358859158618,-0.9971073115532135,-0.9999335158995529,-0.9978811775825703,-0.7611005903652284,0.8174461837701248,0.8625228364903658,0.6430273354657009,-0.8815889801681883,-0.9988216036336452,-0.999854972873701,-0.9973032275538521,-0.5947010087008259,-0.14335745699564797,-0.14335745699564797,-0.14335745699564797,-0.14335745699564797,-0.14335745699564797,-0.14335745699564797],[-0.14335745699564797,-0.14335745699564797,-0.14335745699564797,-0.14335745699564797,-0.14335745699564797,-0.14335745699564797,-0.14335745699564797,-0.9238834657762892,-0.9899098059708418,-0.9984050934178528,-0.8502145351269451,0.832800876989341,0.9692781256992962,0.9752793703388947,0.9818819183609631,0.925177585338134,-0.5019289974827171,-0.9929206528160573,-0.9973388549491726,-0.8986459338051173,-0.14335745699564797,-0.14335745699564797,-0.14335745699564797,-0.14335745699564797,-0.14335745699564797,-0.14335745699564797],[-0.14335745699564797,-0.14335745699564797,-0.14335745699564797,-0.14335745699564797,-0.14335745699564797,-0.14335745699564797,-0.14335745699564797,0.24557397192210317,-0.08544291088943781,-0.22554186403712134,-0.5441979839159043,0.2674842330672382,-0.10667867221069963,-0.11573388449788766,0.1153813583769874,0.17746477252321471,-0.6841454795796885,-0.986914604396228,-0.9941896531876206,-0.7895719161933793,-0.14335745699564797,-0.14335745699564797,-0.14335745699564797,-0.14335745699564797,-0.14335745699564797,-0.14335745699564797],[-0.14335745699564797,-0.14335745699564797,-0.14335745699564797,-0.14335745699564797,-0.14335745699564797,-0.14335745699564797,-0.14335745699564797,0.6983819333503529,0.8993060490357645,0.860701834689749,0.49565768234516594,0.05680244567903444,-0.14335745699564797,-0.14335745699564797,-0.21741137097512098,-0.8881586394142887,-0.9792242816364416,-0.9980547247177822,-0.9835776029011375,-0.4043471638000549,-0.14335745699564797,-0.14335745699564797,-0.14335745699564797,-0.14335745699564797,-0.14335745699564797,-0.14335745699564797],[-0.14335745699564797,-0.14335745699564797,-0.14335745699564797,-0.14335745699564797,-0.14335745699564797,-0.14335745699564797,-0.14335745699564797,0.16033560961278145,0.5416529896488256,0.40875173723759783,0.21149936883536932,-0.14335745699564797,-0.14335745699564797,-0.1647189500896228,-0.7468737599927328,-0.9707567937739111,-0.9978471216837328,-0.9982617036922369,-0.9723673425583829,-0.294371500815119,-0.14335745699564797,-0.14335745699564797,-0.14335745699564797,-0.14335745699564797,-0.14335745699564797,-0.14335745699564797],[-0.14335745699564797,-0.14335745699564797,-0.14335745699564797,-0.14335745699564797,-0.14335745699564797,-0.14335745699564797,-0.14335745699564797,-0.14335745699564797,-0.14335745699564797,-0.14335745699564797,-0.14335745699564797,-0.14335745699564797,-0.14335745699564797,-0.3961032219678259,-0.9623084461970143,-0.9936690343506318,-0.9976962351478808,-0.9707917489837687,-0.2772089076301194,-0.055692723521469374,-0.14335745699564797,-0.14335745699564797,-0.14335745699564797,-0.14335745699564797,-0.14335745699564797,-0.14335745699564797],[-0.14335745699564797,-0.14335745699564797,-0.14335745699564797,-0.14335745699564797,-0.14335745699564797,-0.14335745699564797,-0.14335745699564797,-0.14335745699564797,-0.14335745699564797,-0.14335745699564797,-0.14335745699564797,-0.14335745699564797,-0.14335745699564797,-0.7899063559424603,-0.9770147228716587,-0.9952556146714931,-0.9680426570002436,-0.2897297473509248,0.47593536647072593,-0.05452462730330284,-0.14335745699564797,-0.14335745699564797,-0.14335745699564797,-0.14335745699564797,-0.14335745699564797,-0.14335745699564797],[-0.14335745699564797,-0.14335745699564797,-0.14335745699564797,-0.14335745699564797,-0.14335745699564797,-0.14335745699564797,-0.14335745699564797,-0.14335745699564797,-0.14335745699564797,-0.14335745699564797,-0.14335745699564797,-0.14335745699564797,-0.49577694502461045,-0.9603278107039359,-0.9937446652988001,-0.9915542377560846,-0.8833466316794458,0.4645998978950696,0.0016357741719944547,-0.14335745699564797,-0.14335745699564797,-0.14335745699564797,-0.14335745699564797,-0.14335745699564797,-0.14335745699564797,-0.14335745699564797],[-0.14335745699564797,-0.14335745699564797,-0.14335745699564797,-0.14335745699564797,-0.14335745699564797,-0.14335745699564797,-0.14335745699564797,-0.14335745699564797,-0.14335745699564797,-0.14335745699564797,-0.14335745699564797,-0.3286252492148883,-0.9151793993475702,-0.992483984739088,-0.9969752219825053,-0.9784801447037296,-0.3292104448786107,0.2027352139146742,-0.14032411724174448,-0.14335745699564797,-0.14335745699564797,-0.14335745699564797,-0.14335745699564797,-0.14335745699564797,-0.14335745699564797,-0.14335745699564797],[-0.14335745699564797,-0.14335745699564797,-0.14335745699564797,-0.14335745699564797,-0.14335745699564797,-0.14335745699564797,-0.14335745699564797,-0.14335745699564797,-0.14335745699564797,-0.14335745699564797,-0.6614176797142736,-0.9747392953758585,-0.9992591738876405,-0.9990010951217241,-0.9652186271085581,-0.38247757239437286,0.32789956544694565,-0.14335745699564797,-0.14335745699564797,-0.14335745699564797,-0.14335745699564797,-0.14335745699564797,-0.14335745699564797,-0.14335745699564797,-0.14335745699564797,-0.14335745699564797],[-0.14335745699564797,-0.14335745699564797,-0.14335745699564797,-0.14335745699564797,-0.14335745699564797,-0.14335745699564797,-0.14335745699564797,-0.14335745699564797,-0.1700360830829876,-0.6580866400224006,-0.9830152556441891,-0.9996827154014919,-0.9996566340792999,-0.9720171259144604,0.2062212719783549,0.5530437890238261,0.0895526329078161,-0.14335745699564797,-0.14335745699564797,-0.14335745699564797,-0.14335745699564797,-0.14335745699564797,-0.14335745699564797,-0.14335745699564797,-0.14335745699564797,-0.14335745699564797],[-0.14335745699564797,-0.14335745699564797,-0.14335745699564797,-0.14335745699564797,-0.14335745699564797,-0.14335745699564797,-0.14335745699564797,-0.23298987442921804,-0.8645010857834785,-0.9944150729638931,-0.9997979936284045,-0.99879295080461,-0.8977954187548934,0.46695209283061906,0.6527586423809175,0.18224467172526151,-0.1312084987958271,-0.14335745699564797,-0.14335745699564797,-0.14335745699564797,-0.14335745699564797,-0.14335745699564797,-0.14335745699564797,-0.14335745699564797,-0.14335745699564797,-0.14335745699564797],[-0.14335745699564797,-0.14335745699564797,-0.14335745699564797,-0.14335745699564797,-0.14335745699564797,-0.1700360830829876,-0.5198144222104629,-0.9564784957152637,-0.9990081717460012,-0.9999120607621712,-0.9984389129539196,-0.7760084693527144,0.5185075152159059,0.5740845478209253,0.05680244567903444,-0.14335745699564797,-0.18064041283602592,-0.3759983606442993,-0.683137008472485,-0.8104453284572429,-0.8543228407645449,-0.7899576677972244,-0.9207986317514586,-0.9763166503544918,-0.9717194910534842,-0.8843313903998801],[-0.14335745699564797,-0.14335745699564797,-0.14335745699564797,-0.14335745699564797,-0.28402298801336817,-0.8163993643947238,-0.9918884342884672,-0.999869618562357,-0.9998293406195741,-0.9922390992854282,-0.15846221167087798,0.46069389369764624,-0.5039894144545735,-0.942204171299351,-0.9929028191175913,-0.9977998164011289,-0.99954056344273,-0.9997822915179269,-0.9999173591823014,-0.9999717508902263,-0.9999724021281006,-0.9999679313848735,-0.9999386387723024,-0.9998226898099943,-0.9943606050554522,-0.9185732325910838],[-0.14335745699564797,-0.14335745699564797,-0.14335745699564797,-0.14335745699564797,-0.832298448199162,-0.9928572280660114,-0.9999209511443584,-0.9999479387622731,-0.999758230278071,-0.9989990023847348,-0.9993627575459113,-0.999835044265035,-0.9999647623705572,-0.9999831134143377,-0.9999900370013435,-0.9999892517080806,-0.9999815496190672,-0.999820705907326,-0.9993983976096825,-0.9979527131057438,-0.9981472802314595,-0.9847686920656699,-0.8216994189653157,-0.07643176628602509,0.03191186028538428,-0.03090160421886933],[-0.14335745699564797,-0.14335745699564797,-0.14335745699564797,-0.14335745699564797,-0.8705969918909279,-0.987033615966489,-0.9996131237319004,-0.9996514392765778,-0.9997887278256468,-0.9999582992679578,-0.9999850723295143,-0.9999637036606381,-0.9997503914505744,-0.9974731656384576,-0.9771779342033629,-0.8395495332836278,0.2024878678139863,0.825970367383909,0.9219459441627696,0.9568730041870154,0.9586408121425907,0.9775646382971689,0.9681964209017683,0.9355501162557766,0.6295727947294382,0.2144545737825688],[-0.14335745699564797,-0.14335745699564797,-0.14335745699564797,-0.14335745699564797,0.38245822644907124,0.47952038675798947,0.3417762928701382,-0.06012972110040197,0.060555394340984024,0.383465820146293,0.6583411695316519,0.8241004063131736,0.9150587892384848,0.9468729821859587,0.9618730301103612,0.9631152388084501,0.9612624181663246,0.8949921094604945,0.8830858626694194,0.7997187109866761,0.7211266565617317,0.32980574545655383,0.025901635220071162,-0.14335745699564797,-0.14335745699564797,-0.14335745699564797],[-0.14335745699564797,-0.14335745699564797,-0.14335745699564797,-0.14335745699564797,0.6129343197615856,0.9091206930532479,0.9754816905075367,0.977664570407606,0.9768706787176334,0.9772517381914728,0.9775651507376415,0.9547486049666553,0.9171920688068358,0.8543170003254864,0.6958003782602257,0.4075839061421294,0.027069275601728057,-0.11596711607769564,-0.14335745699564797,-0.14335745699564797,-0.14335745699564797,-0.14335745699564797,-0.14335745699564797,-0.14335745699564797,-0.14335745699564797,-0.14335745699564797],[-0.14335745699564797,-0.14335745699564797,-0.14335745699564797,-0.14335745699564797,-0.14335745699564797,0.10568357750333379,0.3071133794998003,0.41810682846318603,0.32884002014101454,0.18241413328480507,0.006574897633851941,-0.08839925587855353,-0.14335745699564797,-0.14335745699564797,-0.14335745699564797,-0.14335745699564797,-0.14335745699564797,-0.14335745699564797,-0.14335745699564797,-0.14335745699564797,-0.14335745699564797,-0.14335745699564797,-0.14335745699564797,-0.14335745699564797,-0.14335745699564797,-0.14335745699564797],[-0.14335745699564797,-0.14335745699564797,-0.14335745699564797,-0.14335745699564797,-0.14335745699564797,-0.14335745699564797,-0.14335745699564797,-0.14335745699564797,-0.14335745699564797,-0.14335745699564797,-0.14335745699564797,-0.14335745699564797,-0.14335745699564797,-0.14335745699564797,-0.14335745699564797,-0.14335745699564797,-0.14335745699564797,-0.14335745699564797,-0.14335745699564797,-0.14335745699564797,-0.14335745699564797,-0.14335745699564797,-0.14335745699564797,-0.14335745699564797,-0.14335745699564797,-0.14335745699564797],[-0.14335745699564797,-0.14335745699564797,-0.14335745699564797,-0.14335745699564797,-0.14335745699564797,-0.14335745699564797,-0.14335745699564797,-0.14335745699564797,-0.14335745699564797,-0.14335745699564797,-0.14335745699564797,-0.14335745699564797,-0.14335745699564797,-0.14335745699564797,-0.14335745699564797,-0.14335745699564797,-0.14335745699564797,-0.14335745699564797,-0.14335745699564797,-0.14335745699564797,-0.14335745699564797,-0.14335745699564797,-0.14335745699564797,-0.14335745699564797,-0.14335745699564797,-0.14335745699564797],[-0.14335745699564797,-0.14335745699564797,-0.14335745699564797,-0.14335745699564797,-0.14335745699564797,-0.14335745699564797,-0.14335745699564797,-0.14335745699564797,-0.14335745699564797,-0.14335745699564797,-0.14335745699564797,-0.14335745699564797,-0.14335745699564797,-0.14335745699564797,-0.14335745699564797,-0.14335745699564797,-0.14335745699564797,-0.14335745699564797,-0.14335745699564797,-0.14335745699564797,-0.14335745699564797,-0.14335745699564797,-0.14335745699564797,-0.14335745699564797,-0.14335745699564797,-0.14335745699564797]]],"weights":[[[0.0977393767136178,-0.9156108387347988],[-0.07869177608682934,0.15767171697642596]]],"bias":0.0,"outputs":[[[-0.14335745699564797,-0.14335745699564797,-0.14335745699564797,-0.14335745699564797,-0.14335745699564797,-0.14335745699564797,-0.14335745699564797,-0.14335745699564797,-0.14335745699564797,-0.14335745699564797,-0.14335745699564797,-0.14335745699564797,-0.14335745699564797],[-0.14335745699564797,-0.14335745699564797,-0.14335745699564797,-0.14335745699564797,-0.14335745699564797,-0.14335745699564797,-0.14335745699564797,-0.14335745699564797,-0.14335745699564797,-0.14335745699564797,-0.14335745699564797,-0.14335745699564797,-0.14335745699564797],[-0.14335745699564797,-0.14335745699564797,-0.14335745699564797,-0.14335745699564797,-0.14335745699564797,0.832800876989341,0.9752793703388947,0.9818819183609631,-0.21741137097512098,-0.5947010087008259,-0.14335745699564797,-0.14335745699564797,-0.14335745699564797],[-0.14335745699564797,-0.14335745699564797,-0.14335745699564797,0.6983819333503529,0.8993060490357645,0.49565768234516594,-0.10667867221069963,0.17746477252321471,-0.6841454795796885,-0.4043471638000549,-0.14335745699564797,-0.14335745699564797,-0.14335745699564797],[-0.14335745699564797,-0.14335745699564797,-0.14335745699564797,0.16033560961278145,0.5416529896488256,0.21149936883536932,-0.14335745699564797,-0.7468737599927328,-0.9707917489837687,-0.055692723521469374,-0.14335745699564797,-0.14335745699564797,0.8174461837701248],[-0.14335745699564797,-0.14335745699564797,-0.14335745699564797,-0.14335745699564797,-0.14335745699564797,-0.14335745699564797,-0.14335745699564797,-0.9238834657762892,0.4645998978950696,0.47593536647072593,-0.14335745699564797,0.832800876989341,0.9692781256992962],[-0.14335745699564797,-0.14335745699564797,-0.14335745699564797,-0.14335745699564797,-0.14335745699564797,-0.14335745699564797,-0.14335745699564797,0.24557397192210317,0.32789956544694565,-0.14032411724174448,-0.14335745699564797,0.2674842330672382,-0.10667867221069963],[-0.14335745699564797,-0.14335745699564797,-0.14335745699564797,-0.14335745699564797,-0.14335745699564797,-0.14335745699564797,0.46695209283061906,0.6983819333503529,0.8993060490357645,0.860701834689749,0.49565768234516594,0.05680244567903444,-0.14335745699564797],[-0.14335745699564797,-0.14335745699564797,-0.14335745699564797,-0.14335745699564797,-0.14335745699564797,0.46069389369764624,0.5740845478209253,0.16033560961278145,0.5416529896488256,0.40875173723759783,0.21149936883536932,-0.14335745699564797,-0.14335745699564797],[-0.14335745699564797,-0.14335745699564797,-0.14335745699564797,-0.14335745699564797,-0.14335745699564797,-0.14335745699564797,-0.14335745699564797,-0.14335745699564797,0.825970367383909,0.9568730041870154,0.9775646382971689,0.9681964209017683,0.6295727947294382],[-0.14335745699564797,-0.14335745699564797,0.9091206930532479,0.977664570407606,0.9772517381914728,0.9775651507376415,0.9468729821859587,0.9631152388084501,0.9612624181663246,0.8830858626694194,0.7211266565617317,0.025901635220071162,-0.14335745699564797],[-0.14335745699564797,-0.14335745699564797,0.10568357750333379,0.41810682846318603,0.32884002014101454,0.006574897633851941,-0.14335745699564797,-0.14335745699564797,-0.14335745699564797,-0.14335745699564797,-0.14335745699564797,-0.14335745699564797,-0.14335745699564797],[-0.14335745699564797,-0.14335745699564797,-0.14335745699564797,-0.14335745699564797,-0.14335745699564797,-0.14335745699564797,-0.14335745699564797,-0.14335745699564797,-0.14335745699564797,-0.14335745699564797,-0.14335745699564797,-0.14335745699564797,-0.14335745699564797]]],"inputs":[[[-0.14335745699564797,-0.14335745699564797,-0.14335745699564797,-0.14335745699564797,-0.14335745699564797,-0.14335745699564797,-0.14335745699564797,-0.14335745699564797,-0.14335745699564797,-0.14335745699564797,-0.14335745699564797,-0.14335745699564797,-0.14335745699564797,-0.14335745699564797,-0.14335745699564797,-0.14335745699564797,-0.14335745699564797,-0.14335745699564797,-0.14335745699564797,-0.14335745699564797,-0.14335745699564797,-0.14335745699564797,-0.14335745699564797,-0.14335745699564797,-0.14335745699564797,-0.14335745699564797],[-0.14335745699564797,-0.14335745699564797,-0.14335745699564797,-0.14335745699564797,-0.14335745699564797,-0.14335745699564797,-0.14335745699564797,-0.14335745699564797,-0.14335745699564797,-0.14335745699564797,-0.333496072621075,-0.5968397448510618,-0.8718313489154822,-0.9226089541898363,-0.9183643818417032,-0.7479610099640884,-0.4445905985233797,-0.14335745699564797,-0.14335745699564797,-0.14335745699564797,-0.14335745699564797,-0.14335745699564797,-0.14335745699564797,-0.14335745699564797,-0.14335745699564797,-0.14335745699564797],[-0.14335745699564797,-0.14335745699564797,-0.14335745699564797,-0.14335745699564797,-0.14335745699564797,-0.14335745699564797,-0.14335745699564797,-0.14335745699564797,-0.21741137097512098,-0.7335459927314542,-0.9822942050591226,-0.99957554293019,-0.9999679900453408,-0.9999790278384579,-0.9999727013090125,-0.999775801838765,-0.9951959487363862,-0.8070701625666544,-0.2674169251300851,-0.14335745699564797,-0.14335745699564797,-0.14335745699564797,-0.14335745699564797,-0.14335745699564797,-0.14335745699564797,-0.14335745699564797],[-0.14335745699564797,-0.14335745699564797,-0.14335745699564797,-0.14335745699564797,-0.14335745699564797,-0.14335745699564797,-0.14335745699564797,-0.42246957013196984,-0.9202245816278384,-0.9977894592813481,-0.9999544497873225,-0.9999778134397588,-0.9999543503677935,-0.9999141603731655,-0.9999724610750318,-0.9999925876739729,-0.9999774310525444,-0.9992830359309015,-0.9729936081458542,-0.3098786096396713,-0.14335745699564797,-0.14335745699564797,-0.14335745699564797,-0.14335745699564797,-0.14335745699564797,-0.14335745699564797],[-0.14335745699564797,-0.14335745699564797,-0.14335745699564797,-0.14335745699564797,-0.14335745699564797,-0.14335745699564797,-0.14335745699564797,-0.9215358859158618,-0.9971073115532135,-0.9999335158995529,-0.9978811775825703,-0.7611005903652284,0.8174461837701248,0.8625228364903658,0.6430273354657009,-0.8815889801681883,-0.9988216036336452,-0.999854972873701,-0.9973032275538521,-0.5947010087008259,-0.14335745699564797,-0.14335745699564797,-0.14335745699564797,-0.14335745699564797,-0.14335745699564797,-0.14335745699564797],[-0.14335745699564797,-0.14335745699564797,-0.14335745699564797,-0.14335745699564797,-0.14335745699564797,-0.14335745699564797,-0.14335745699564797,-0.9238834657762892,-0.9899098059708418,-0.9984050934178528,-0.8502145351269451,0.832800876989341,0.9692781256992962,0.9752793703388947,0.9818819183609631,0.925177585338134,-0.5019289974827171,-0.9929206528160573,-0.9973388549491726,-0.8986459338051173,-0.14335745699564797,-0.14335745699564797,-0.14335745699564797,-0.14335745699564797,-0.14335745699564797,-0.14335745699564797],[-0.14335745699564797,-0.14335745699564797,-0.14335745699564797,-0.14335745699564797,-0.14335745699564797,-0.14335745699564797,-0.14335745699564797,0.24557397192210317,-0.08544291088943781,-0.22554186403712134,-0.5441979839159043,0.2674842330672382,-0.10667867221069963,-0.11573388449788766,0.1153813583769874,0.17746477252321471,-0.6841454795796885,-0.986914604396228,-0.9941896531876206,-0.7895719161933793,-0.14335745699564797,-0.14335745699564797,-0.14335745699564797,-0.14335745699564797,-0.14335745699564797,-0.14335745699564797],[-0.14335745699564797,-0.14335745699564797,-0.14335745699564797,-0.14335745699564797,-0.14335745699564797,-0.14335745699564797,-0.14335745699564797,0.6983819333503529,0.8993060490357645,0.860701834689749,0.49565768234516594,0.05680244567903444,-0.14335745699564797,-0.14335745699564797,-0.21741137097512098,-0.8881586394142887,-0.9792242816364416,-0.9980547247177822,-0.9835776029011375,-0.4043471638000549,-0.14335745699564797,-0.14335745699564797,-0.14335745699564797,-0.14335745699564797,-0.14335745699564797,-0.14335745699564797],[-0.14335745699564797,-0.14335745699564797,-0.14335745699564797,-0.14335745699564797,-0.14335745699564797,-0.14335745699564797,-0.14335745699564797,0.16033560961278145,0.5416529896488256,0.40875173723759783,0.21149936883536932,-0.14335745699564797,-0.14335745699564797,-0.1647189500896228,-0.7468737599927328,-0.9707567937739111,-0.9978471216837328,-0.9982617036922369,-0.9723673425583829,-0.294371500815119,-0.14335745699564797,-0.14335745699564797,-0.14335745699564797,-0.14335745699564797,-0.14335745699564797,-0.14335745699564797],[-0.14335745699564797,-0.14335745699564797,-0.14335745699564797,-0.14335745699564797,-0.14335745699564797,-0.14335745699564797,-0.14335745699564797,-0.14335745699564797,-0.14335745699564797,-0.14335745699564797,-0.14335745699564797,-0.14335745699564797,-0.14335745699564797,-0.3961032219678259,-0.9623084461970143,-0.9936690343506318,-0.9976962351478808,-0.9707917489837687,-0.2772089076301194,-0.055692723521469374,-0.14335745699564797,-0.14335745699564797,-0.14335745699564797,-0.14335745699564797,-0.14335745699564797,-0.14335745699564797],[-0.14335745699564797,-0.14335745699564797,-0.14335745699564797,-0.14335745699564797,-0.14335745699564797,-0.14335745699564797,-0.14335745699564797,-0.14335745699564797,-0.14335745699564797,-0.14335745699564797,-0.14335745699564797,-0.14335745699564797,-0.14335745699564797,-0.7899063559424603,-0.9770147228716587,-0.9952556146714931,-0.9680426570002436,-0.2897297473509248,0.47593536647072593,-0.05452462730330284,-0.14335745699564797,-0.14335745699564797,-0.14335745699564797,-0.14335745699564797,-0.14335745699564797,-0.14335745699564797],[-0.14335745699564797,-0.14335745699564797,-0.14335745699564797,-0.14335745699564797,-0.14335745699564797,-0.14335745699564797,-0.14335745699564797,-0.14335745699564797,-0.14335745699564797,-0.14335745699564797,-0.14335745699564797,-0.14335745699564797,-0.49577694502461045,-0.9603278107039359,-0.9937446652988001,-0.9915542377560846,-0.8833466316794458,0.4645998978950696,0.0016357741719944547,-0.14335745699564797,-0.14335745699564797,-0.14335745699564797,-0.14335745699564797,-0.14335745699564797,-0.14335745699564797,-0.14335745699564797],[-0.14335745699564797,-0.14335745699564797,-0.14335745699564797,-0.14335745699564797,-0.14335745699564797,-0.14335745699564797,-0.14335745699564797,-0.14335745699564797,-0.14335745699564797,-0.14335745699564797,-0.14335745699564797,-0.3286252492148883,-0.9151793993475702,-0.992483984739088,-0.9969752219825053,-0.9784801447037296,-0.3292104448786107,0.2027352139146742,-0.14032411724174448,-0.14335745699564797,-0.14335745699564797,-0.14335745699564797,-0.14335745699564797,-0.14335745699564797,-0.14335745699564797,-0.14335745699564797],[-0.14335745699564797,-0.14335745699564797,-0.14335745699564797,-0.14335745699564797,-0.14335745699564797,-0.14335745699564797,-0.14335745699564797,-0.14335745699564797,-0.14335745699564797,-0.14335745699564797,-0.6614176797142736,-0.9747392953758585,-0.9992591738876405,-0.9990010951217241,-0.9652186271085581,-0.38247757239437286,0.32789956544694565,-0.14335745699564797,-0.14335745699564797,-0.14335745699564797,-0.14335745699564797,-0.14335745699564797,-0.14335745699564797,-0.14335745699564797,-0.14335745699564797,-0.14335745699564797],[-0.14335745699564797,-0.14335745699564797,-0.14335745699564797,-0.14335745699564797,-0.14335745699564797,-0.14335745699564797,-0.14335745699564797,-0.14335745699564797,-0.1700360830829876,-0.6580866400224006,-0.9830152556441891,-0.9996827154014919,-0.9996566340792999,-0.9720171259144604,0.2062212719783549,0.5530437890238261,0.0895526329078161,-0.14335745699564797,-0.14335745699564797,-0.14335745699564797,-0.14335745699564797,-0.14335745699564797,-0.14335745699564797,-0.14335745699564797,-0.14335745699564797,-0.14335745699564797],[-0.14335745699564797,-0.14335745699564797,-0.14335745699564797,-0.14335745699564797,-0.14335745699564797,-0.14335745699564797,-0.14335745699564797,-0.23298987442921804,-0.8645010857834785,-0.9944150729638931,-0.9997979936284045,-0.99879295080461,-0.8977954187548934,0.46695209283061906,0.6527586423809175,0.18224467172526151,-0.1312084987958271,-0.14335745699564797,-0.14335745699564797,-0.14335745699564797,-0.14335745699564797,-0.14335745699564797,-0.14335745699564797,-0.14335745699564797,-0.14335745699564797,-0.14335745699564797],[-0.14335745699564797,-0.14335745699564797,-0.14335745699564797,-0.14335745699564797,-0.14335745699564797,-0.1700360830829876,-0.5198144222104629,-0.9564784957152637,-0.9990081717460012,-0.9999120607621712,-0.9984389129539196,-0.7760084693527144,0.5185075152159059,0.5740845478209253,0.05680244567903444,-0.14335745699564797,-0.18064041283602592,-0.3759983606442993,-0.683137008472485,-0.8104453284572429,-0.8543228407645449,-0.7899576677972244,-0.9207986317514586,-0.9763166503544918,-0.9717194910534842,-0.8843313903998801],[-0.14335745699564797,-0.14335745699564797,-0.14335745699564797,-0.14335745699564797,-0.28402298801336817,-0.8163993643947238,-0.9918884342884672,-0.999869618562357,-0.9998293406195741,-0.9922390992854282,-0.15846221167087798,0.46069389369764624,-0.5039894144545735,-0.942204171299351,-0.9929028191175913,-0.9977998164011289,-0.99954056344273,-0.9997822915179269,-0.9999173591823014,-0.9999717508902263,-0.9999724021281006,-0.9999679313848735,-0.9999386387723024,-0.9998226898099943,-0.9943606050554522,-0.9185732325910838],[-0.14335745699564797,-0.14335745699564797,-0.14335745699564797,-0.14335745699564797,-0.832298448199162,-0.9928572280660114,-0.9999209511443584,-0.9999479387622731,-0.999758230278071,-0.9989990023847348,-0.9993627575459113,-0.999835044265035,-0.9999647623705572,-0.9999831134143377,-0.9999900370013435,-0.9999892517080806,-0.9999815496190672,-0.999820705907326,-0.9993983976096825,-0.9979527131057438,-0.9981472802314595,-0.9847686920656699,-0.8216994189653157,-0.07643176628602509,0.03191186028538428,-0.03090160421886933],[-0.14335745699564797,-0.14335745699564797,-0.14335745699564797,-0.14335745699564797,-0.8705969918909279,-0.987033615966489,-0.9996131237319004,-0.9996514392765778,-0.9997887278256468,-0.9999582992679578,-0.9999850723295143,-0.9999637036606381,-0.9997503914505744,-0.9974731656384576,-0.9771779342033629,-0.8395495332836278,0.2024878678139863,0.825970367383909,0.9219459441627696,0.9568730041870154,0.9586408121425907,0.9775646382971689,0.9681964209017683,0.9355501162557766,0.6295727947294382,0.2144545737825688],[-0.14335745699564797,-0.14335745699564797,-0.14335745699564797,-0.14335745699564797,0.38245822644907124,0.47952038675798947,0.3417762928701382,-0.06012972110040197,0.060555394340984024,0.383465820146293,0.6583411695316519,0.8241004063131736,0.9150587892384848,0.9468729821859587,0.9618730301103612,0.9631152388084501,0.9612624181663246,0.8949921094604945,0.8830858626694194,0.7997187109866761,0.7211266565617317,0.32980574545655383,0.025901635220071162,-0.14335745699564797,-0.14335745699564797,-0.14335745699564797],[-0.14335745699564797,-0.14335745699564797,-0.14335745699564797,-0.14335745699564797,0.6129343197615856,0.9091206930532479,0.9754816905075367,0.977664570407606,0.9768706787176334,0.9772517381914728,0.9775651507376415,0.9547486049666553,0.9171920688068358,0.8543170003254864,0.6958003782602257,0.4075839061421294,0.027069275601728057,-0.11596711607769564,-0.14335745699564797,-0.14335745699564797,-0.14335745699564797,-0.14335745699564797,-0.14335745699564797,-0.14335745699564797,-0.14335745699564797,-0.14335745699564797],[-0.14335745699564797,-0.14335745699564797,-0.14335745699564797,-0.14335745699564797,-0.14335745699564797,0.10568357750333379,0.3071133794998003,0.41810682846318603,0.32884002014101454,0.18241413328480507,0.006574897633851941,-0.08839925587855353,-0.14335745699564797,-0.14335745699564797,-0.14335745699564797,-0.14335745699564797,-0.14335745699564797,-0.14335745699564797,-0.14335745699564797,-0.14335745699564797,-0.14335745699564797,-0.14335745699564797,-0.14335745699564797,-0.14335745699564797,-0.14335745699564797,-0.14335745699564797],[-0.14335745699564797,-0.14335745699564797,-0.14335745699564797,-0.14335745699564797,-0.14335745699564797,-0.14335745699564797,-0.14335745699564797,-0.14335745699564797,-0.14335745699564797,-0.14335745699564797,-0.14335745699564797,-0.14335745699564797,-0.14335745699564797,-0.14335745699564797,-0.14335745699564797,-0.14335745699564797,-0.14335745699564797,-0.14335745699564797,-0.14335745699564797,-0.14335745699564797,-0.14335745699564797,-0.14335745699564797,-0.14335745699564797,-0.14335745699564797,-0.14335745699564797,-0.14335745699564797],[-0.14335745699564797,-0.14335745699564797,-0.14335745699564797,-0.14335745699564797,-0.14335745699564797,-0.14335745699564797,-0.14335745699564797,-0.14335745699564797,-0.14335745699564797,-0.14335745699564797,-0.14335745699564797,-0.14335745699564797,-0.14335745699564797,-0.14335745699564797,-0.14335745699564797,-0.14335745699564797,-0.14335745699564797,-0.14335745699564797,-0.14335745699564797,-0.14335745699564797,-0.14335745699564797,-0.14335745699564797,-0.14335745699564797,-0.14335745699564797,-0.14335745699564797,-0.14335745699564797],[-0.14335745699564797,-0.14335745699564797,-0.14335745699564797,-0.14335745699564797,-0.14335745699564797,-0.14335745699564797,-0.14335745699564797,-0.14335745699564797,-0.14335745699564797,-0.14335745699564797,-0.14335745699564797,-0.14335745699564797,-0.14335745699564797,-0.14335745699564797,-0.14335745699564797,-0.14335745699564797,-0.14335745699564797,-0.14335745699564797,-0.14335745699564797,-0.14335745699564797,-0.14335745699564797,-0.14335745699564797,-0.14335745699564797,-0.14335745699564797,-0.14335745699564797,-0.14335745699564797]]]},"dense_params":null},{"activation":{"function":"ReLU"},"layer_type":"Pooling","conv_params":{"kernel":3,"padding_type":"Valid","padding":0,"stride":2,"data":[[[-0.14335745699564797,-0.14335745699564797,-0.14335745699564797,-0.14335745699564797,-0.14335745699564797,-0.14335745699564797,-0.14335745699564797,-0.14335745699564797,-0.14335745699564797,-0.14335745699564797,-0.14335745699564797,-0.14335745699564797,-0.14335745699564797],[-0.14335745699564797,-0.14335745699564797,-0.14335745699564797,-0.14335745699564797,-0.14335745699564797,-0.14335745699564797,-0.14335745699564797,-0.14335745699564797,-0.14335745699564797,-0.14335745699564797,-0.14335745699564797,-0.14335745699564797,-0.14335745699564797],[-0.14335745699564797,-0.14335745699564797,-0.14335745699564797,-0.14335745699564797,-0.14335745699564797,0.832800876989341,0.9752793703388947,0.9818819183609631,-0.21741137097512098,-0.5947010087008259,-0.14335745699564797,-0.14335745699564797,-0.14335745699564797],[-0.14335745699564797,-0.14335745699564797,-0.14335745699564797,0.6983819333503529,0.8993060490357645,0.49565768234516594,-0.10667867221069963,0.17746477252321471,-0.6841454795796885,-0.4043471638000549,-0.14335745699564797,-0.14335745699564797,-0.14335745699564797],[-0.14335745699564797,-0.14335745699564797,-0.14335745699564797,0.16033560961278145,0.5416529896488256,0.21149936883536932,-0.14335745699564797,-0.7468737599927328,-0.9707917489837687,-0.055692723521469374,-0.14335745699564797,-0.14335745699564797,0.8174461837701248],[-0.14335745699564797,-0.14335745699564797,-0.14335745699564797,-0.14335745699564797,-0.14335745699564797,-0.14335745699564797,-0.14335745699564797,-0.9238834657762892,0.4645998978950696,0.47593536647072593,-0.14335745699564797,0.832800876989341,0.9692781256992962],[-0.14335745699564797,-0.14335745699564797,-0.14335745699564797,-0.14335745699564797,-0.14335745699564797,-0.14335745699564797,-0.14335745699564797,0.24557397192210317,0.32789956544694565,-0.14032411724174448,-0.14335745699564797,0.2674842330672382,-0.10667867221069963],[-0.14335745699564797,-0.14335745699564797,-0.14335745699564797,-0.14335745699564797,-0.14335745699564797,-0.14335745699564797,0.46695209283061906,0.6983819333503529,0.8993060490357645,0.860701834689749,0.49565768234516594,0.05680244567903444,-0.14335745699564797],[-0.14335745699564797,-0.14335745699564797,-0.14335745699564797,-0.14335745699564797,-0.14335745699564797,0.46069389369764624,0.5740845478209253,0.16033560961278145,0.5416529896488256,0.40875173723759783,0.21149936883536932,-0.14335745699564797,-0.14335745699564797],[-0.14335745699564797,-0.14335745699564797,-0.14335745699564797,-0.14335745699564797,-0.14335745699564797,-0.14335745699564797,-0.14335745699564797,-0.14335745699564797,0.825970367383909,0.9568730041870154,0.9775646382971689,0.9681964209017683,0.6295727947294382],[-0.14335745699564797,-0.14335745699564797,0.9091206930532479,0.977664570407606,0.9772517381914728,0.9775651507376415,0.9468729821859587,0.9631152388084501,0.9612624181663246,0.8830858626694194,0.7211266565617317,0.025901635220071162,-0.14335745699564797],[-0.14335745699564797,-0.14335745699564797,0.10568357750333379,0.41810682846318603,0.32884002014101454,0.006574897633851941,-0.14335745699564797,-0.14335745699564797,-0.14335745699564797,-0.14335745699564797,-0.14335745699564797,-0.14335745699564797,-0.14335745699564797],[-0.14335745699564797,-0.14335745699564797,-0.14335745699564797,-0.14335745699564797,-0.14335745699564797,-0.14335745699564797,-0.14335745699564797,-0.14335745699564797,-0.14335745699564797,-0.14335745699564797,-0.14335745699564797,-0.14335745699564797,-0.14335745699564797]]],"weights":[[[0.2727659326374295,-0.059816785414047946,0.11113976381376207],[-0.10462688997906443,0.24350664075658454,-0.33130182906260897],[0.2914369604805599,0.18838237935501037,0.27527769773793304]]],"bias":0.0,"outputs":[[[-0.14335745699564797,-0.14335745699564797,0.9752793703388947,0.9818819183609631,-0.14335745699564797,-0.14335745699564797],[-0.14335745699564797,0.8993060490357645,0.9752793703388947,0.9818819183609631,-0.055692723521469374,0.8174461837701248],[-0.14335745699564797,0.5416529896488256,0.5416529896488256,0.4645998978950696,0.47593536647072593,0.9692781256992962],[-0.14335745699564797,-0.14335745699564797,0.5740845478209253,0.8993060490357645,0.8993060490357645,0.49565768234516594],[0.9091206930532479,0.977664570407606,0.9775651507376415,0.9631152388084501,0.9775646382971689,0.9775646382971689],[0.9091206930532479,0.977664570407606,0.9775651507376415,0.9631152388084501,0.9612624181663246,0.7211266565617317]]],"inputs":[[[-0.14335745699564797,-0.14335745699564797,-0.14335745699564797,-0.14335745699564797,-0.14335745699564797,-0.14335745699564797,-0.14335745699564797,-0.14335745699564797,-0.14335745699564797,-0.14335745699564797,-0.14335745699564797,-0.14335745699564797,-0.14335745699564797],[-0.14335745699564797,-0.14335745699564797,-0.14335745699564797,-0.14335745699564797,-0.14335745699564797,-0.14335745699564797,-0.14335745699564797,-0.14335745699564797,-0.14335745699564797,-0.14335745699564797,-0.14335745699564797,-0.14335745699564797,-0.14335745699564797],[-0.14335745699564797,-0.14335745699564797,-0.14335745699564797,-0.14335745699564797,-0.14335745699564797,0.832800876989341,0.9752793703388947,0.9818819183609631,-0.21741137097512098,-0.5947010087008259,-0.14335745699564797,-0.14335745699564797,-0.14335745699564797],[-0.14335745699564797,-0.14335745699564797,-0.14335745699564797,0.6983819333503529,0.8993060490357645,0.49565768234516594,-0.10667867221069963,0.17746477252321471,-0.6841454795796885,-0.4043471638000549,-0.14335745699564797,-0.14335745699564797,-0.14335745699564797],[-0.14335745699564797,-0.14335745699564797,-0.14335745699564797,0.16033560961278145,0.5416529896488256,0.21149936883536932,-0.14335745699564797,-0.7468737599927328,-0.9707917489837687,-0.055692723521469374,-0.14335745699564797,-0.14335745699564797,0.8174461837701248],[-0.14335745699564797,-0.14335745699564797,-0.14335745699564797,-0.14335745699564797,-0.14335745699564797,-0.14335745699564797,-0.14335745699564797,-0.9238834657762892,0.4645998978950696,0.47593536647072593,-0.14335745699564797,0.832800876989341,0.9692781256992962],[-0.14335745699564797,-0.14335745699564797,-0.14335745699564797,-0.14335745699564797,-0.14335745699564797,-0.14335745699564797,-0.14335745699564797,0.24557397192210317,0.32789956544694565,-0.14032411724174448,-0.14335745699564797,0.2674842330672382,-0.10667867221069963],[-0.14335745699564797,-0.14335745699564797,-0.14335745699564797,-0.14335745699564797,-0.14335745699564797,-0.14335745699564797,0.46695209283061906,0.6983819333503529,0.8993060490357645,0.860701834689749,0.49565768234516594,0.05680244567903444,-0.14335745699564797],[-0.14335745699564797,-0.14335745699564797,-0.14335745699564797,-0.14335745699564797,-0.14335745699564797,0.46069389369764624,0.5740845478209253,0.16033560961278145,0.5416529896488256,0.40875173723759783,0.21149936883536932,-0.14335745699564797,-0.14335745699564797],[-0.14335745699564797,-0.14335745699564797,-0.14335745699564797,-0.14335745699564797,-0.14335745699564797,-0.14335745699564797,-0.14335745699564797,-0.14335745699564797,0.825970367383909,0.9568730041870154,0.9775646382971689,0.9681964209017683,0.6295727947294382],[-0.14335745699564797,-0.14335745699564797,0.9091206930532479,0.977664570407606,0.9772517381914728,0.9775651507376415,0.9468729821859587,0.9631152388084501,0.9612624181663246,0.8830858626694194,0.7211266565617317,0.025901635220071162,-0.14335745699564797],[-0.14335745699564797,-0.14335745699564797,0.10568357750333379,0.41810682846318603,0.32884002014101454,0.006574897633851941,-0.14335745699564797,-0.14335745699564797,-0.14335745699564797,-0.14335745699564797,-0.14335745699564797,-0.14335745699564797,-0.14335745699564797],[-0.14335745699564797,-0.14335745699564797,-0.14335745699564797,-0.14335745699564797,-0.14335745699564797,-0.14335745699564797,-0.14335745699564797,-0.14335745699564797,-0.14335745699564797,-0.14335745699564797,-0.14335745699564797,-0.14335745699564797,-0.14335745699564797]]]},"dense_params":null},{"activation":{"function":"Sigmoid"},"layer_type":"Dense","conv_params":null,"dense_params":{"nodes_in":36,"nodes_out":32,"outputs":[0.9998393596791152,0.9997869937607993,0.9633304659352809,0.7695572335415992,0.9949508303246067,0.9973799696689652,0.9988639474380361,0.01536955593790822,0.3102130175671128,0.9992889428075653,0.9997955455678027,0.04065687829595126,0.9987582159304572,0.9956248320916012,0.9989463983997424,0.5296916410076399,0.9993405926598604,0.9932407756013011,0.9567920501490271,0.9643114725596447,0.9995138205868549,0.9987551033801927,0.7338756261809926,0.8890402433643027,0.9858624099317519,0.9982588326502846,0.662774509812216,0.9920234735669805,0.9974982329625461,0.9968765747821186,0.9966482967381708,0.017969061568452054],"inputs":[-0.14335745699564797,-0.14335745699564797,0.9752793703388947,0.9818819183609631,-0.14335745699564797,-0.14335745699564797,-0.14335745699564797,0.8993060490357645,0.9752793703388947,0.9818819183609631,-0.055692723521469374,0.8174461837701248,-0.14335745699564797,0.5416529896488256,0.5416529896488256,0.4645998978950696,0.47593536647072593,0.9692781256992962,-0.14335745699564797,-0.14335745699564797,0.5740845478209253,0.8993060490357645,0.8993060490357645,0.49565768234516594,0.9091206930532479,0.977664570407606,0.9775651507376415,0.9631152388084501,0.9775646382971689,0.9775646382971689,0.9091206930532479,0.977664570407606,0.9775651507376415,0.9631152388084501,0.9612624181663246,0.7211266565617317],"weights":[[0.32261925000447633,-0.011952817964956782,-0.35270868060944754,-0.39194230288768833,0.11009777991426985,-0.10070643002036933,0.11327655012475599,0.046081443593410015,0.4107450524335636,0.03455585791039148,0.21338817883189473,-0.7035099316651686,0.3851624059706272,0.07114042362911961,0.12660133097944226,-0.24668058617588567,-0.02824813633978809,0.1363951562182581,-0.05720443945801931,0.18633851550771616,-0.0016819606428964751,0.2678081443362515,-0.40958116814683104,-0.46919019340349705,-0.08470162381921666,0.05388555956386734,-0.16284955176027632,-0.20951104693731679,0.09112341385819633,-0.06863517639855467,0.1393121403829049,-0.4211273109046212],[0.7020173573177684,0.09700277799988687,-0.7494451539938812,-0.8185840880817521,0.41565188833012273,0.14752572453190246,0.17283049800598194,0.15491536082897536,0.6834822903972676,0.675150666466018,1.2460581652673868,-0.9481581196243012,1.385505327399231,0.26656476380623967,0.4485656854957898,-1.4062020644375866,-0.13313105741741285,0.13817349215287816,-0.08453874810078066,0.1756588894060136,-0.11524573653601826,0.423435013426443,-0.4441733781065482,-1.0573007172736189,-0.28734496250468594,0.12851688085084764,-0.4906045880854327,-0.7687871794746471,0.08267938015682567,-0.43680570137884506,0.48160726081723004,-1.1180791059175836],[0.8129549846354455,0.2373766032332356,-0.5659779470154941,-0.3707235165251296,0.14803109794029184,0.9569972168254631,0.24681748486494248,-0.19703445235729514,0.32981148352084994,0.9614618195267619,1.6256839859851815,-0.30712410863826567,0.7057804942258048,-0.05389114262136816,1.0720536294726544,-0.4183850301153917,-0.04659494338959426,-0.22639383986658296,0.33796829948915713,0.3359913809433668,0.3409251724273151,0.45838621642453875,-0.3599691674226314,-0.31025997757079715,-0.36980896594392293,0.1037885060866663,-0.6819235682644748,-0.8056372186159453,0.07054318654214675,0.048532392163663465,0.17281274178851833,-0.8284822640167815],[0.9279680224735922,0.08913011470409045,0.03149309096796714,-0.3276679520706271,0.09837110145134456,0.9762424451993891,0.34715306457653955,-0.7668104386801451,-0.14134288933094796,1.084490012511199,2.1348210840343436,-0.44566705427295605,0.8651834834698673,-0.16071181869938791,1.2535192099913153,0.3335233774904073,-0.08671759501581736,-0.08216586980825634,0.10068631391434166,0.09484578234284508,0.3122452258172572,1.5634704234746408,-1.4579891933516,-0.08571097336867507,-0.17075743094255538,0.0759524776480673,0.2737830053372948,-0.6165265042210649,0.06902145703299668,0.08097002424543236,0.3717575259135047,-0.6974271737883352],[0.8254300626583294,0.11556222077396779,0.1594589087687941,0.4291881051392255,-0.19534445944880138,1.0289662395806491,0.15571019946286463,-0.20524501799818218,0.6194425982331038,0.8141383375996192,1.3821905191187618,-0.7412741400283344,1.0510754498130213,-0.4165138536522593,1.1360880737807022,0.006336574373731781,0.2520995388893631,-0.0045230042081517196,-1.2466337983344036,0.5052063499209651,-0.041246146495507195,1.5475587498799726,-1.8530936708052155,0.04660370132366309,0.11505346457875594,0.1380233259051278,0.7404016641353607,-0.5501945635079046,-0.004131458918799381,-0.7203999486957605,-0.6034417416074539,0.5262370532751506],[0.2369902562444502,-0.0955774759379538,-0.12357203564439233,0.6759189242586345,-0.1993996346613705,0.5449075096562088,-0.09320001897920095,0.9308427963166743,0.8755622388298144,0.508077298136032,0.38699588841471627,-0.3635180212057494,0.4531430302169399,-0.3950295001020685,0.7796462278404538,-0.6541000256112793,0.0589500463639152,-0.05665132729000708,-1.734397952027753,0.4704364253633937,-0.013571539037496526,0.23428324328002303,-0.9244443331744664,0.5306426326435222,0.08185938966556908,-0.10887567632230329,0.15118432038386287,-0.31575352448784105,0.0030508449887928905,-0.6484949473343711,-0.2904709481520757,1.041286020136019],[0.9357722409622063,0.050102899493526254,0.1669153512244212,-0.32222209326132745,0.3312093509620148,-1.1895443408974604,0.04964123708699682,-1.4803111962641515,-0.06805349694087401,-0.03802906616143428,0.025919165120819054,-0.9551611770796858,1.5743243622587575,0.3477992346935312,-0.873412870239798,-0.3797502372414903,-0.03352337556743013,0.12483787098555213,0.7207662856243189,1.1298042361273866,0.15982567301709372,0.16979460482151706,0.05140301446158407,-0.9497752052256876,0.18426574986817323,0.049507154389759195,-1.595861772470303,-0.04849834613870787,0.08594157318573367,0.3534869574110557,-0.12685901213001194,-0.8926706934215877],[1.0275701161479223,0.2588719384507151,-0.12544641934027692,-0.11280207548812066,0.5250850513277938,0.033898680775198656,0.26442024258206454,-2.169509940725085,1.1765516637622624,-0.02398926411437423,-0.020279587334619594,-0.7057661609423671,1.5960744312201443,0.7164716434126994,0.24132637362179354,0.5464327257417406,0.3820455908144836,0.3374604020460495,0.7341547560897704,1.1170305026827894,-0.01354943235655941,-0.1154810713965807,0.4872195906148682,-0.8651478970530251,0.25809821417401907,0.48802717520715727,-1.632001417855384,0.09062508164908897,0.4100711630629573,1.3862881220168728,0.7629761798400219,-0.7763144873234443],[0.6606020189880376,0.33156698772517157,-0.08802758838378548,0.08610217144626449,0.49856622611965007,0.4141500821638502,0.27825315647161597,-1.485401489900381,1.332247211309192,0.1117723663921406,-0.13239331822945358,-0.23217969842493097,-0.2312726188761213,0.5132351279595511,0.6347264364716942,1.1221793264180526,0.4080076582184175,0.41052230932244527,0.6060812214226474,1.4422609865524838,0.30623175988989676,0.31445728088260494,0.47791878793072795,-0.4921043933590214,0.3279380381150035,0.5514854854041772,-0.3702873024672998,0.29344572152283366,0.44596091083328276,1.2545808040063555,1.239395714164449,-0.36384328235435914],[-0.4412501720098244,0.49495763176605767,0.11104000634719174,-0.2209430706454578,0.446634637182361,0.6161370004024171,0.40687715899064997,-0.7462761216771556,-0.27358701263774443,-0.050449028977989654,0.33113516954093003,0.2891135270766855,-0.7537609649075989,0.4225262448614421,0.14883082717758164,2.5435755379578056,0.3863516569080999,0.5892633629675101,1.6069078048465744,0.07187478920389898,0.5136116637775436,0.2915164693833491,-0.11812703344925325,0.4998833889862527,0.5281942313586752,0.36432627256221095,0.24495488019590478,0.3805165488108026,0.5782003357267035,1.4795586748213672,0.2667968395234651,-0.2627673174161862],[-1.6024665227078225,0.34736508950221223,-0.6068925512017125,0.2219674445607573,0.3332020362438075,1.3002069453708418,0.22153498946693523,0.21386877998294915,-0.23802350450948795,0.2330137795798465,0.2845742155224541,0.597987804918257,0.20416456828162918,0.6827079868593834,0.5368453963379557,2.1400113939506,0.606941645455629,0.6758206621767889,0.337106463877776,0.07163879971333509,-0.20797886945493937,0.25079869067970084,-0.2916800397611605,0.4239100454707975,0.20944670027107717,0.13993430292399084,0.49960776845196714,0.6700613508408221,0.3855161746459329,-0.25363402791597156,-1.6814593799628965,0.9613069346427986],[-0.5490837193963516,0.31967236694379886,-1.8884270941580505,1.0254214423104604,-0.09351493157120364,0.7382268033261717,-0.09515557746195019,-0.09772448448618089,0.5244411360059128,1.1399793641546618,0.7790420843070134,0.03349647149222185,1.0867728465340027,0.1862708123107944,0.6345589466502699,-0.2429238180199273,0.11308354530178978,0.014076512506950477,-0.35457584092084493,1.2662608945024678,-0.0014780151119223697,-0.39243714664964846,-0.1026405830248052,0.05450057826064772,-0.12088699800862338,0.08199660791876467,-0.19331571316591314,-0.6163202826217542,0.06029353397520635,-0.730148141979894,-1.4387107262863208,1.3743647690248946],[-0.32633034598459304,0.15305065262910572,0.7514463596665104,0.587640760019608,0.6194718087982235,-0.8050338449864237,0.2115563552937465,-0.08045354415606923,-0.3229771853031368,0.24746774670872845,-0.33616868535470196,0.9194951089514862,0.6393830569674657,0.6656205712683824,-0.572571103505282,0.3662456010871225,0.19760880585060941,0.3133829122031069,-0.1444462480436024,0.6178462602145869,-0.15515716278455535,-0.21436712112187706,0.07751784555353844,0.5932805011071286,0.469147733876491,0.13256627249518654,-0.9187435995979295,0.758893569329189,0.12414143695646174,0.6703421623773894,-0.550412983503129,0.44069566244068104],[-0.05491675985114569,0.013338504601469738,0.40852975324094554,0.8039691460863696,0.24388168038559518,-1.1016362626021339,0.09216417381013028,-0.5672283021843626,-0.7083796874323657,-0.24947369604036385,-0.6315613488215035,0.881137242312981,0.019227473737178175,0.4625263088179053,-0.8873721803466915,0.4275016144164088,0.21653180096027924,0.7090130606878615,-0.25139335583719663,1.0599800930935617,-0.33781290120347524,0.19418737064809166,1.1352289097953079,0.5420680193030842,0.395682334845312,0.5622676773007256,0.1374671314941957,0.9783477029960779,0.5551640903471577,0.7984676920218952,-0.31885597168422336,1.1917132155567962],[0.01999488473022583,0.4823009788940651,0.25324867320286437,0.22274997589006434,0.139582006739437,-0.6733610722562773,0.4048037965912124,-0.1455868002466809,-0.09298502234972446,0.12441913081320234,-0.3543259581546403,1.2401653701181057,0.2500639079979725,-0.08897295332598269,-0.7856468664097672,-0.16736840753820878,0.3341038410948084,0.4438679278185233,0.4332732398950242,0.43509567642385133,0.40026802810108325,-0.40923627366098,1.3451627687605738,-0.052110764501259656,0.1830110165436352,0.2221237692516786,0.41707296300683144,0.554829460658006,0.14025686057655742,0.9836905585435128,-0.658925377553056,-0.0587540162503817],[-0.38873028708428525,0.5212053619123846,0.12404911022580031,-0.01401033079232753,0.38346083464486114,-1.0827013594317871,0.4115292531233187,0.5333447458565118,-0.41705605270036966,0.2017023331253202,0.010722123092524906,1.8624326920059349,0.24137244562294696,0.20065336335688924,-1.3349453631723707,-0.20201168327679608,0.3882862672554515,0.4355772100492012,0.5813717767976362,-0.1689594502238648,0.6590923730353825,-1.038423573377987,0.42332681662979954,0.23827456912263073,0.26856198604607934,0.3400413225832539,0.1332945964956615,0.21338623941846827,0.43780103366861983,0.6623074487675342,-1.0067591815224226,-0.7201195814196417],[0.3313429675400588,0.2440062708033703,1.0736575944163214,-0.20938807643979807,0.1714855319005307,0.12294325120436057,0.32206496258699224,-0.19999669593370267,-1.09159667054854,0.2251399002426196,0.5764060585083624,1.1417924813445444,0.3305622911086716,0.7829323829242385,-0.002067117485410624,-0.21838559337035068,0.3570607491965397,0.40493941029885555,0.8062317774979015,0.1215434044457747,0.2679737559527151,0.1921948457420383,-0.48773867398148446,-0.0033847187395783327,0.1284249787796212,0.11297258833207104,0.13776191642534003,0.2700485148132768,0.05969268138909551,0.32283886639136966,-0.21544772565678044,0.25640581479410884],[0.46088488677016176,0.15053830402794866,0.03097653434066031,0.3680055146632304,0.36979734409853093,0.6016793858182329,0.016859976294277133,-0.7367073046899648,-0.41830139555821255,0.5289162846847999,-0.043753189554942756,-0.19262806302434934,0.07120935791646396,0.8107975280180604,0.5268234666196104,0.6589154243421946,0.2654032738916936,0.29056757049909826,0.9077502387988693,0.6927670934797239,0.07366089392182014,0.2016967272397732,0.05602603968257062,0.03470573071398418,-0.04888628534586617,0.30091731145112693,-0.062483917788825546,0.11571543030405303,0.22142264372272347,0.4246233180729851,-0.040011891263414624,0.27741901808275077],[-1.3614101520833426,0.1387991575732479,0.08442884656919813,-0.4638817292605953,0.8053891406907485,0.26804408296353355,0.5089637675994377,2.2691991401727742,0.35347465600884764,-0.6966727602297583,-1.6252579328224468,0.30744959962078633,-1.1489430196705297,0.6047380306063288,-0.17063523194097927,-0.5748189107017998,0.4577314225349126,0.22816327150295823,-0.6934932110636843,-0.2106191126882963,-0.270510781313921,0.2572934713395837,0.48394726551923317,0.26251616462363786,0.4887133534478962,0.33058203105403944,0.8038082038964514,0.36908434674160695,0.40180175930533935,-0.9439534123768021,-0.4798583565005577,-0.2424119542363811],[-1.5897045376759895,0.22675470115480925,-1.0901488832350863,0.32659156092415187,0.7994170015633014,0.4652288162927393,0.4201290292973397,0.7960649728819656,1.2982020130130716,-0.7696966246170253,-1.0341225686220246,0.9070817950585646,-1.4705659945053235,0.8895244516904489,-0.022689327036611556,0.030156276930119436,0.3500155374871933,0.7201558227145322,-0.9054025292760409,0.183273646412189,-0.2358833825961229,0.8221658404393419,0.8540561517697008,-0.6487582146666342,0.8126524027967036,0.4408276188810961,2.2351266738480415,0.5666490838118688,0.7542486958912293,-1.2434874621454695,-1.284464149040411,0.11922870062034832],[-0.1400819821408878,0.5538561023304712,-0.48981562860512917,0.5903201499053752,0.21765675649576735,0.9274557087730597,0.4387065995860875,0.1845562633407113,1.992127576379521,-0.6297703428778687,-0.9429108802361846,0.524445641039208,-0.9427345851000737,0.3680597576609295,0.7161325006058867,-0.1497735545544152,0.31668857689031293,0.19471329618759534,0.3410881039194418,1.7145898043532173,0.17136171717686038,0.5180258258649405,1.1982101331806936,-0.71678373695536,0.224051092806488,0.3117410920721829,1.4428689865264308,0.11388177810695047,0.32098037890091163,0.005676530364779057,1.055736586247672,0.8116028610243594],[0.011402448870777796,0.4898334973375485,-0.3382152083156607,1.3064977177134047,0.32399458938189546,1.2289972946217913,0.5143841443750186,0.19853881582148294,2.030786921735219,-0.3394476682479293,-0.15038655458145142,0.25814620910312913,-0.6917628233559379,0.27128520428101177,0.9951872068936053,-0.3170071347305205,0.3872950137835315,0.3286216197474786,-0.8354002245814973,2.0175879788215507,0.14191712804751355,0.40681379420610997,0.49563729920383215,-0.3658797106922376,0.38985026104083764,0.3427892871828501,0.7389197053539012,-0.028489297952001558,0.3827367683444085,-0.5662082596393881,1.6625528397971165,1.2558682881364827],[0.6311149058847804,0.26732551544844235,2.2664271290103484,-0.16407073206498013,0.39328236669904776,-0.4020127987656223,0.7071834150516565,-0.11523221735292144,-0.8023557676464763,-0.19339978255704085,-0.37656689549072486,-0.14523754755723758,-0.431293650914264,0.822119997992203,-0.13626328425540946,-0.7738918207455405,0.45595958282232996,0.36578808262117973,-0.760013175891846,0.709277747266702,-0.047089553328661916,1.769713665572566,-0.5930138030387662,-0.01117527297261125,0.5217770812402996,0.44265125438497416,0.02366676471042941,0.540429639419286,0.20138072761245732,-1.039887794345746,0.7156345694326189,0.2441076908127981],[0.5592500668475989,0.18411609065025192,0.771129605408571,-0.5608709102920307,0.3493392500369687,0.3698650848170991,0.13851286897507534,-0.6376882946934865,0.34730680725752017,0.2874744224252918,0.09939327725545805,-0.38520182000748043,0.09329063705236981,0.4798804335703094,0.33893204479860795,0.738569160362818,0.14736595133827413,0.29315452317345486,-0.40214662844958177,-0.18563916374426226,0.4514415441588133,0.8404452473020543,0.2148155918515207,-0.08954085262041316,0.49477724233024034,0.3293230923370849,-0.1284654189217547,0.5705705854811862,0.4003286694975229,0.7269588874995899,0.2528460904260931,-0.6490363774565052],[-0.07573720149779371,0.11828275988822239,-1.2605422065500367,-0.9356438753448854,0.3650718177099824,0.6362573241876898,0.008579309738990392,0.38594138675479933,0.26882877561071183,0.032727847193229485,0.14247857223786056,-0.5293761401498115,0.3590141907318208,0.366022152326656,0.04053960322539422,-0.721548966167746,0.315923650321627,0.4369392780159267,0.19250278916136496,-0.37181772205809416,-0.21150541927123684,0.3239869641020266,0.5087675743357992,-0.5964249260260895,-0.3652988882870902,0.05486569606285934,0.3809679250406215,-0.38527309126446097,0.2545709712249789,-0.4631738362325013,-0.6401212841259288,-0.6335693755762307],[-0.6119205164979724,0.3491575716342328,-0.23360582257098797,-0.08065047710916645,0.5610103691621393,0.43082554724664174,0.18636962536769525,-0.3174185056330475,-0.2702077437110322,0.12833716840015869,0.9356979140845102,-0.5928373505314369,-0.4214817147238811,0.3493588790023241,0.22825796164719142,0.30463528936741185,0.5059192034806507,0.49096389697978693,-0.6486086397317168,-1.1265533421161864,0.5403867947410627,0.9953308640825486,-1.2714684481655676,0.5286333100818748,0.5480880400773909,0.411287196470572,0.6279465540459673,0.41374719915294145,0.4574357080617796,-0.16985079816736381,0.03832926724980048,-0.5501443866906146],[0.3876019981522478,0.6629297752411578,0.3097429820936818,0.6594543501694551,-0.016188765433613837,0.18105649741937027,0.6049165433347702,0.20387704498650858,-0.3773518082177886,0.21570012342134526,-0.20163899688070464,-1.8066753466914274,0.07358306462525509,-0.013080766939962837,0.42363807439062895,-0.42013494039592564,0.4349431934270149,-0.1910503722025049,-0.4481494916275528,-0.2522686182508279,0.5680484805086466,-0.048221269974390864,-0.36806731223900674,0.9327514499790903,0.32242566922607097,0.25634125395160584,-0.69856325629965,0.17439834764785206,0.05857001392125016,-0.47802603367018504,1.4559956739280033,0.33175430329888905],[0.6030080987494463,0.529798603700037,0.05902090321593521,0.046307685417090495,0.30244057516785494,0.03141614414659398,0.4436412347996583,0.13509078582123124,-0.03431063759092891,0.32018972167033977,-0.3478672238878313,-1.1844017925485846,0.5642744852296983,0.14526480038128317,0.18012369053472413,-0.7999002543763966,0.37026590619059585,0.11188768056373163,-0.2629133915007076,-0.04448484022335481,0.3504337957790019,0.3035498169072743,-0.1716568894196464,0.17519222173338905,0.3924060717152441,0.267321918396214,-0.6117255394520565,0.36458540183495247,0.2959127351311347,-0.7227617930532151,1.1077839905197528,-0.15565235146729392],[-0.14348617184704432,0.3213631496199602,-0.02940762211981773,-1.1016653002260892,1.0636118079588692,-0.3747983711415054,0.6249225655914882,0.32624275176199125,-0.058177801022354175,0.17507277869211177,0.21523996052050323,-0.7650349680298264,0.5503469554149862,0.5245674262317023,-0.4020538295880358,-0.9806432184077455,0.313213275108367,0.5425913935062522,-1.036782544323328,-1.100860716732624,0.3022124227027481,1.0491028562701137,-1.090795550119228,-0.2840251519883184,0.8836922766942013,0.7992402460098285,0.05041406847993864,0.5570141850804199,0.8352337675717699,-1.0218531309933143,-0.4016695346342623,-2.11077421321522],[-0.06110549455644801,0.17753848217187732,-0.08031824012197313,0.46916583640651677,0.36181573618835916,-1.3956667991447689,0.20356574949394904,0.4642401192133273,-0.42409999037218915,0.27477386850421737,-0.5603187074310617,-1.4897757420830944,0.06501196336806299,0.39284523542265204,-0.9241836294452741,0.771007554985034,0.19640290539119953,-0.08279617515981794,-0.5699607698518078,-0.41141186149655273,0.7236096762704122,-0.5963318515467824,-0.7981249154000731,1.2782740109643598,0.8342503278906688,0.26793916558225,-1.1232663973338097,0.683225545423328,0.49325916367578565,0.3486086743605394,1.162435926012593,-0.8434811282987118],[0.8582538232578921,0.2610676449849525,-0.8023067174232396,-1.2499719287231783,0.08829829492685168,-0.03866414400026898,-0.39027142108010837,-1.373094952732458,0.142263030680705,0.2418998817460303,0.5876343620380542,-0.10613162919758988,0.6681708884845479,0.2351463802084722,-0.208637488369557,-0.3076733548789499,0.14962627904844827,0.28599358678122555,1.8951671701329893,0.18948091046278276,0.19058036077397103,-0.14010075989324502,1.3506412942918284,-1.2131838965567234,-0.7154662946415996,-0.06962646713844607,0.029176897536087557,-0.24941517617361447,-0.028415405249102316,0.8392452891327631,0.33848522727076025,-1.1703201440722597],[0.9767063057777973,0.4807299284913272,-0.11611579780784642,-0.6214335987596208,0.3554060213527724,0.6695945171740089,-0.0050115738110464185,-1.0587504704135047,-0.3772107244191412,0.6992848686293267,1.3912188578548597,0.0709365071969917,0.4358247711359249,0.14757174833759432,0.5138076283277203,-0.2856648698142072,0.28811881602531064,0.4329369852670569,1.074742750685734,-0.369482660265038,0.7420640568791277,0.7497945251329792,0.1460486844603304,-0.5286997765089629,0.031163608423728843,0.11844648480140986,1.0310340655540793,0.3577837217836998,0.29453984914006087,0.5637168177129366,-0.43944290217993265,-1.519235868541469],[1.226189014287274,0.7647756813948924,1.510366313343009,0.5503713115002707,-0.5007616319988589,0.45324956168868213,0.4880679714069912,0.6910536283397964,-1.1828996714384408,0.6697238453865114,1.0572715157996735,0.8997308947205271,1.0698076317231837,-0.5454870347956706,0.8285803900614839,-1.0385977337436807,0.5889356710753972,-0.287769517463336,0.004275587156153999,-0.2526299304769112,0.6511111289296725,-0.3892891024306557,0.5673868711736196,0.8962181823389129,-0.1294494547901141,-0.01762142739301056,-0.30179706345056956,0.568748027293869,-0.36675858611319856,0.1894999364378823,0.5319217594462622,1.1239765308142273],[1.0314545207727914,0.48768488457044445,1.2787464449031731,0.20977092701274644,0.12886627763138436,1.0891181559411132,0.40927947426908257,0.127176330173876,-0.44380214839735577,0.7252885253383637,2.0570220757665107,1.6721402186346086,1.6933714234476915,0.11216318609592997,0.9830583257525505,-0.5505514009577372,0.49458860920029807,0.44246325461323976,-0.35675791323828593,-0.3914804298164826,0.2632990129319398,0.864039114460498,-0.25552826782432514,0.10083952564827481,0.35285579214706064,0.33462894747224614,1.2913856338914564,0.6844656004739981,0.36407840746409986,0.6753736231708293,-1.0494873582067792,0.6708479839720884],[0.6302600316151943,-0.04012861060697869,0.29095403374475043,-0.024983112640652252,0.2722598138607741,0.7783324020804002,0.2500271757312285,0.5698441109077669,0.08081310711730082,0.7058147632616919,1.3115610258213064,-0.3959038371794599,0.44928830788665886,0.1702591562915945,0.9992931251465484,0.1496220050197343,0.289008196876544,0.40443290343537225,-0.8060601119479994,-0.8624064359947932,0.05642366040087775,1.1969399933991405,-0.6636201650177876,0.11048314383843585,0.47246514411166535,0.399289131387673,1.5914695179427023,0.46095510282429486,0.5634529513034202,0.9137017892092558,-0.5815181428408348,-0.5279997760863561],[-0.00657120064430625,0.13179791687762316,0.6311319685208145,0.6249017920964001,-0.16549787287371553,-0.9316533308774474,-0.034022231020877855,0.4433594164638986,-0.4191342753533411,0.32492978304119596,-0.07640556042567331,-0.8006854664760394,-0.15722978317800507,-0.06062372834103669,-0.5505602418640084,0.42369388498090954,0.021578049192577792,0.26940633569865335,0.015999784588481655,-0.3407731933486754,0.5092320733797978,-0.726820955215155,0.17511093668155342,0.9167642379965756,-0.022037614137421353,0.25879543969181695,0.5655788749757172,0.1490062024880734,0.17509692711459265,1.1932988548664165,-0.7712433126438631,-0.3534550526208863]],"biases":[0.41974592226652574,1.008478836379848,0.9891122349026188,0.8129107407481757,-0.40042263929340094,0.23225775988167238,0.8043169482094097,1.9161777570504055,-0.9137166316347178,0.1682842469520207,-0.974780921096296,0.018156741312592938,0.07608018764283526,-0.3841257198919596,0.7108872693964284,-0.4894850801755464,0.6911760082105914,-0.5782716838459055,0.40284112572403835,0.07117077591592887,0.7032396167695668,-0.9447367180015098,1.5739776266870622,1.2303006289169742,-0.18610203933352362,0.040496861396239904,-1.2820286095522866,0.33038366031104777,-0.30025484191048774,-0.3737162623434237,1.0080883176040478,0.8856857658218135]}},{"activation":{"function":"SoftMax"},"layer_type":"Dense","conv_params":null,"dense_params":{"nodes_in":32,"nodes_out":10,"outputs":[0.0014087050104363808,0.00022966107197929534,0.9747223449909925,0.019024496712833357,0.000028848704536349178,0.0008996269743079879,0.000184580928567966,0.0007520563577689325,0.0026503200288995905,0.00009935921967760051],"inputs":[0.9998393596791152,0.9997869937607993,0.9633304659352809,0.7695572335415992,0.9949508303246067,0.9973799696689652,0.9988639474380361,0.01536955593790822,0.3102130175671128,0.9992889428075653,0.9997955455678027,0.04065687829595126,0.9987582159304572,0.9956248320916012,0.9989463983997424,0.5296916410076399,0.9993405926598604,0.9932407756013011,0.9567920501490271,0.9643114725596447,0.9995138205868549,0.9987551033801927,0.7338756261809926,0.8890402433643027,0.9858624099317519,0.9982588326502846,0.662774509812216,0.9920234735669805,0.9974982329625461,0.9968765747821186,0.9966482967381708,0.017969061568452054],"weights":[[-0.1939669067445234,2.0316137506087846,-0.18636333819973372,2.2727976553688065,-1.3102450485094486,-1.719916834312855,0.14132975696901523,-0.5454237828087939,1.153101797915353,-1.67895140949785],[-0.15427981693291423,0.8835784692007624,1.0302245321226313,-0.48855522324215,-0.00024098172794464285,-0.4507765925207461,-0.586444799810441,0.9041615900472132,-1.3686769276802715,-0.38423328971226123],[-0.37358468049627525,0.9985999756268122,-2.075005023082593,-1.3879751484987584,1.224770248901154,-3.0582095099333166,1.0394014401978835,1.9016997192859884,1.2102877834962797,0.838108332935425],[-2.050926119093932,1.1486438689691516,-0.10210677671128777,-0.45725983140922294,-0.4024770279151389,1.42877123528058,-0.4873430545002894,-0.0397377872782967,0.8543547455053989,0.19417185852797358],[-0.10728905360838656,-2.09525523180652,1.4009908182978843,0.5582145603507196,-0.07844678519961329,0.39275307628730527,-0.2986062093521367,1.3440642354590278,-0.6679120603662223,-0.3346900809905152],[1.3742821799904583,-0.1833785558747299,-1.5137690910180177,-0.9446537491641533,1.9463430155028134,1.7346923511418082,0.34013220873017425,-3.581702138643709,0.6427727398810733,0.7047104706846214],[-0.07436667141405662,0.14826465279385614,1.0158769195824229,-0.4089498429367687,0.7016160829924124,-1.0028793344241405,-0.12118607792920337,0.7887431174917089,-1.2014686926950071,-0.13365093127898228],[0.47524629991791295,2.1662028087344414,-1.796225046596189,-3.0948896740730247,1.629197906512173,0.34770839922936386,2.242584417812263,-1.711528056460459,-0.8187640191392714,1.1452654082622091],[-2.093564031322787,0.027500043323332245,0.24512566812423178,2.2676759007917853,1.2880173361822305,1.8568608010552388,-0.3733447815305012,-1.6865865091343337,-1.9605486950495765,0.6312012962704585],[0.22984187316946159,0.8591275710334307,-0.2649462556780648,-0.5556422896947852,-0.6160087219308851,0.8470065905068004,1.1634242608896466,-0.7854100762996203,0.034032048575109934,-1.3490424207769274],[2.3116509972852155,0.2567899849263023,-0.2116251665289602,-0.9475728738895829,-1.854879111771358,1.0919524539083139,3.3297936874063208,-2.818596474708175,0.9805627729221115,-1.7598588053351882],[1.840060715252415,-0.73488349652293,-4.408330913963319,1.486669124737462,-0.8342280251754854,0.6764723538418347,-0.6174924794934188,0.8568648456483988,0.8142748555268579,0.6955410964409682],[0.4864110538722727,1.8815742678124237,-0.28726919987770666,1.2035166985447694,-1.4155230908240966,1.286710836044403,1.3352036434447276,-0.5315747603170234,-0.16999243911085096,-3.614117677240688],[-0.543984187982134,-2.0311843214230554,1.0937234888938845,0.2630580421201529,0.3193886983427872,0.0796742858278094,-0.9373651308990951,1.6430232553560389,0.2787362282592389,-0.1009013792523728],[0.3550377448520312,1.1744219354015646,-0.6746906602410339,-0.6948426361323673,1.5669705138306462,0.646815483480084,0.5601757457291164,-3.2890462290556273,0.294558002810271,0.34548351211576406],[0.3775473361555401,-1.1718456400813846,0.7920265589158401,-1.1562246710923563,-1.8574829054245452,2.0141111869384316,-2.214840650187925,0.5732845813664315,0.9763754808166515,1.4393787995976575],[0.18662337797399367,0.045864641717252366,0.7269932318449619,-0.6325149281049063,0.5005171397504175,-0.16312121052477013,-0.41425730792536697,1.1368654169797048,-0.9845508603764465,-0.09591408519533537],[0.1119472353783049,-1.9285710124593467,0.06904107834433088,0.42800276292366213,0.1574041158786369,0.40032101059683495,-0.008175395828101631,0.982577448701716,0.0701700585834954,0.05490084004373965],[1.4855141901725168,-0.5911528409323494,1.072284814669168,1.478061530431832,-1.8619444960390006,-1.1322567819468115,-2.685396208116602,1.5227166657149733,-0.023980084028191354,0.82809053630915],[-3.243134725663982,-0.2838360946569854,-0.004009543934656266,1.9035842314206182,0.5371699261145746,1.0727839826310432,-1.120509485298035,0.475942239996256,1.0286505702177648,-0.7416370670790334],[-0.1889260825954016,0.6992304457877146,0.8940719481473436,-0.14548654080494208,-1.291687122682027,-0.45881240066611795,0.11780451029899401,0.47430552952007976,-0.6750416527768377,0.10884638791377117],[0.7331554336057325,-2.945423934252159,1.6929108998906228,1.0887876266612386,0.8263357323001992,-0.528801849464652,0.7618800132646228,-1.667558371811708,1.1631881758072056,-1.3981311513869588],[-0.38390913725367465,1.6256232187020239,0.01564004022076672,2.4312310292615984,-0.5639776448946238,-0.048702357181253826,-4.401244466985772,1.7092722323087897,-0.34402996158616833,0.11764943685844417],[-0.6989245703955359,1.7936482136928356,-0.3947583706376243,-1.980508395550256,-1.0230543985081872,0.33618021314522306,0.7031847015100051,0.4833326732076394,0.855241580729698,0.4885361763571659],[0.18262150471530805,-1.4938895075669951,1.10708690190062,-0.9670787038497629,0.3317479655605735,-0.3912685858559157,0.5822395242234201,0.8760249582720777,-0.5017307441702424,0.2717624058364724],[0.050695997792056566,-0.9515022840276263,0.8043027524312557,-0.14713706803715368,0.28235019721319987,-0.21830839585228579,0.16523534254063632,1.0643816474393597,-0.5568038191039,0.04647338040120637],[1.6239371587442435,-4.5027398859094605,-0.8599145995305705,1.6767866926924828,0.7932727532034826,1.0321298298329145,0.596874852261627,-3.1384453801954666,1.404771601165436,1.6658318696697128],[1.014565764225779,-0.886861805719686,-0.5417787675734934,-1.2765743896544386,0.3514130348244938,-0.02655318595449236,0.06587783842353072,1.548693502954649,-0.738034660353174,0.771231456639466],[-0.0395975132617646,-1.856044730869888,0.7958716861486422,-0.18897605792468558,0.1663623830752849,0.1619037217714546,0.1686697857153476,0.6811764638569741,-0.38020148665198056,0.150893841005948],[0.803802700427849,0.7364263524511668,-0.4938629842663521,1.473271594448042,-3.2282008379626466,0.13703087189817265,-1.5210413047914857,-0.2276716430305826,1.0767436649267321,1.0416229070127696],[-1.9769306423909427,2.0048415922171317,1.249232208458587,0.8036912738843665,0.37817767525229296,-2.4676646202197072,0.4593990968765307,-2.6864252838247973,0.10860259822063237,1.7362081033457013],[-2.758837131775688,1.8826948541893327,-2.448466923290549,-1.7494760310334767,1.0286150683286623,0.8673383500786788,-0.07601527648607313,0.282269983320267,2.825375386263683,0.14932003782026584]],"biases":[-0.3754241832190648,1.7834122979635456,0.6851557242055398,-0.6746547254679695,0.41766962802626684,-0.526728887576284,-0.4587556667868091,1.0583422035619692,-1.7656231993951017,-0.14339319131207895]}}],"learning_rate":0.02,"batch_size":32,"cost":0.5785868770486637,"print_progress":false,"network_type":"CNN","loss_function":{"loss_type":"CEL"},"grad_threshold":0.9}